34 128
0 -0.0497943 -0.0100959 -0.0504422 -0.0802855 0.0392468 -0.122343 0.00905216 0.00826449 -0.0161986 -0.22917 0.0160237 0.150151 0.0764964 0.143684 0.0434092 -0.162989 0.0751655 0.184584 0.0993242 -0.0145583 -0.0821201 -0.0134379 -0.156454 -0.0580538 -0.107668 0.00560584 0.0652307 -0.10086 -0.0598638 -0.0937854 -0.125552 -0.168704 -0.0466575 0.151108 -0.0922338 -0.157821 -0.0816075 -0.0421178 0.187151 0.0342961 -0.0466119 -0.177597 -0.0845738 -0.102621 0.176496 0.0487545 0.0079812 -0.1542 0.0159977 -0.07294 -0.154114 0.305215 -0.0678901 0.109532 -0.00558623 -0.00949282 -0.0763588 -0.0271276 -0.254741 0.0842875 -0.0189415 0.0730855 0.135025 -0.091731 0.0119917 0.156317 0.00298349 0.00288485 0.108291 -0.0383997 -0.00471164 0.0381647 -0.0233584 -0.0865708 -0.0538811 -0.0523326 0.139241 -0.0112181 -0.0700039 0.0173655 -0.196339 0.0120651 -0.145786 -0.143707 -0.0603071 0.0408035 -0.151073 -0.133807 0.039205 -0.00800994 0.102523 -0.0377453 0.0504484 0.0525643 -0.0216316 0.143106 -0.0490254 0.31222 0.0203502 0.207326 0.0760991 -0.13453 0.0218337 -0.0218305 0.03247 0.0909171 -0.0583042 0.00298097 0.166648 -0.0792865 -0.0964482 -0.0712938 0.141578 -0.0466493 0.0406422 0.0784441 -0.057793 0.0687884 -0.180109 -0.0552614 -0.177997 -0.1085 -0.0427227 -0.0757737 0.026176 0.0310108 -0.224782 0.00387612
31 0.14385 -0.0682413 0.0445074 -0.18994 0.0660819 -0.104892 -0.106816 0.0336947 -0.098443 -0.193715 -0.167154 -0.0895033 0.0469496 0.057347 -0.0261294 -0.103805 -0.0163921 0.0993791 0.116771 -0.14333 -0.00577017 -0.0284399 -0.122272 -0.125336 -0.0984454 0.0918748 0.0722415 -0.042915 -0.0643153 -0.00236198 0.0513793 -0.224639 0.0524642 0.119908 -0.0853854 -0.00378966 0.0374292 -0.0723872 0.0802603 -0.0150568 0.0814974 -0.242789 0.0439608 -0.08214 0.0906983 -0.0624873 -0.0579376 -0.00544086 -0.0753931 -0.0711831 -0.11478 0.254224 0.144438 -0.00892897 -0.0109081 0.0740762 -0.0434302 -0.0675912 -0.0937176 -0.0546341 -0.0285098 0.0925698 0.00295652 0.0301407 0.0600988 0.2157 0.0497047 -0.0380616 -0.106602 -0.0568823 0.0188349 -0.0676811 -0.0180705 -0.166524 -0.0264926 -0.114157 0.0902822 0.0100727 -0.197421 -0.0308175 -0.181543 -0.0271275 -0.0727657 -0.18044 0.0871705 -0.147443 -0.127163 -0.131778 0.0142318 0.00768466 0.153789 0.0271907 0.203937 0.0712635 0.0590155 0.0157132 -0.00778606 0.250271 0.0804063 0.115461 0.0245911 -0.114464 0.044492 0.203317 -0.13017 0.0907903 -0.0159242 -0.0911546 0.0977099 -0.0760342 -0.0713558 -0.0847107 0.125968 0.0140563 -0.0303393 0.14273 -0.0361245 0.0237941 -0.0703722 -0.158917 -0.113363 -0.044749 -0.00368431 -0.0273543 0.109482 0.0220518 -0.074758 0.063257
21 0.00130556 0.044206 -0.00574774 -0.0715499 0.0589122 -0.140964 -0.0928853 -0.0150393 -0.063848 -0.269252 -0.0592818 0.137932 0.0230225 0.113674 0.0235689 -0.112632 -0.0400613 0.205776 0.0204603 0.0368633 -0.0969735 0.0272068 -0.09846 -0.0765515 -0.106992 0.0825894 0.0613923 -0.110007 -0.0866304 -0.0582422 -0.0535535 -0.157845 -0.106673 0.102093 -0.0912608 -0.140306 -0.0735102 -0.00358853 0.190577 -0.0699632 0.0119217 -0.161596 0.0182908 -0.168437 0.100802 0.0265053 0.0311532 -0.0608229 0.0479154 -0.0625661 -0.121653 0.29004 -0.0283937 0.0548043 0.0283211 0.0405321 -0.047552 -0.0560755 -0.239142 0.0731546 -0.0506761 0.151827 0.0319102 -0.0716992 -0.00530206 0.10604 0.0163634 0.0243194 0.0452367 0.0412065 -0.0460026 0.0502654 -0.00748935 -0.0808318 -0.091715 -0.040265 0.0889253 -0.0444667 -0.0566369 -0.0336467 -0.0977344 -0.0167743 -0.173927 -0.159221 -0.0294936 -0.0268731 -0.139571 -0.0848589 0.0467754 -0.00640936 0.135958 0.0042839 0.0444177 0.0816129 -0.0369784 0.0969626 -0.0757568 0.249029 -0.0392015 0.110574 0.0141239 -0.123438 0.0588394 0.00928773 0.0413143 0.0603627 -0.0211048 0.0394844 0.0746173 -0.120313 -0.0410611 -0.0548133 0.157953 -0.0839808 0.0759658 0.0705079 -0.0993948 0.0463521 -0.108357 -0.069333 -0.152069 -0.161934 -0.0338723 -0.0915196 -0.0393138 0.0939787 -0.134473 0.00695471
19 0.0346042 0.0399661 0.0127468 -0.0982548 0.0547061 -0.129165 -0.0946634 -0.0276861 -0.064949 -0.254663 -0.0757795 0.0807206 0.00297179 0.0936527 0.012387 -0.0978303 -0.0459414 0.182378 0.0169742 0.0119529 -0.0885462 0.0230695 -0.0892219 -0.0861279 -0.105486 0.0752013 0.0560951 -0.081018 -0.0837253 -0.0517202 -0.0233004 -0.146601 -0.0896748 0.0759609 -0.0754149 -0.106721 -0.0513619 0.000781524 0.146212 -0.0675911 0.0304348 -0.138245 0.0398543 -0.154859 0.0667595 0.0135181 0.0342206 -0.0166665 0.0321602 -0.0581874 -0.103247 0.265824 0.011224 0.0285939 0.0298004 0.0766873 -0.0353376 -0.0596709 -0.187197 0.0510251 -0.0425759 0.152241 0.00894857 -0.0456742 0.0093041 0.130974 0.0174576 0.0246138 0.00617734 0.0368369 -0.0433541 0.0330102 -0.00925422 -0.102997 -0.0854763 -0.0560881 0.093392 -0.0399251 -0.0823765 -0.0545385 -0.0973305 -0.022218 -0.161602 -0.172275 -0.0113537 -0.0475757 -0.146028 -0.0864923 0.0401435 0.00160676 0.146711 0.0225845 0.0692234 0.0875262 -0.0320711 0.0766031 -0.0684514 0.28966 -0.0299447 0.115148 0.00574627 -0.134565 0.0720266 0.0632175 0.0157443 0.0766638 -0.0212833 0.021323 0.0874003 -0.13901 -0.0453876 -0.0708394 0.181189 -0.0806027 0.0601175 0.093309 -0.0963305 0.0562479 -0.0999696 -0.105892 -0.163558 -0.154001 -0.031012 -0.0889251 -0.0211967 0.100906 -0.127053 0.0256889
17 0.01253 -0.0129648 -0.012265 -0.149569 0.0248824 -0.133992 -0.03319 -0.0081028 -0.0496079 -0.268187 -0.00757345 0.0913841 0.0591303 0.106562 0.0226431 -0.148524 0.0212919 0.163504 0.0271902 -0.0334391 -0.0824808 -0.0158672 -0.0804886 -0.0934739 -0.13028 0.0603617 0.0733951 -0.0664519 -0.104234 -0.0848555 -0.101699 -0.165035 -0.0736916 0.104998 -0.0955398 -0.173589 -0.0542553 -0.0417385 0.193805 -0.01774 -0.0208498 -0.21209 -0.0408819 -0.116496 0.112458 0.0242486 0.0328021 -0.0652239 0.0245466 -0.0790603 -0.16269 0.283884 -0.0865964 0.0490419 0.000446957 0.00471187 -0.0497038 -0.0604891 -0.246383 0.0836279 -0.00260986 0.125428 0.0827458 -0.0663817 0.00151772 0.158761 0.0229669 0.0371615 0.0847216 -0.00813183 -0.0780999 0.0630319 -0.0138241 -0.0878348 -0.0610495 -0.0722741 0.0724982 -0.0524257 -0.068449 -0.00451723 -0.129748 0.0621447 -0.121107 -0.139782 -0.0295305 0.00435005 -0.114313 -0.118507 0.020167 -0.000180011 0.107435 -0.0131151 0.0648848 0.110756 -0.0343878 0.11338 -0.080346 0.293656 -0.00439797 0.171752 0.0886896 -0.14351 0.0804687 0.0118291 0.0040808 0.0761492 -0.0384539 0.0133854 0.143934 -0.0664913 -0.0620025 -0.059374 0.115247 -0.0986532 0.117559 0.0399396 -0.087758 0.05303 -0.130914 -0.0457929 -0.167355 -0.113227 -0.0333439 -0.0608533 0.00953515 0.0487148 -0.177913 0.0253601
13 0.0568681 0.0248201 0.0497376 -0.169522 0.0296814 -0.10591 -0.0922998 -0.0623368 -0.0974845 -0.320071 -0.0903154 0.0190712 -0.0136875 0.0742218 -0.0046401 -0.135598 -0.0761023 0.208676 -0.0235635 -0.0196678 -0.0641466 0.00864172 -0.054989 -0.139691 -0.206757 0.105253 0.0752466 -0.0295546 -0.116779 -0.0519423 -0.0282566 -0.143343 -0.105317 0.0383665 -0.0500362 -0.129134 -0.0398923 -0.00360612 0.103852 -0.0909309 0.0240014 -0.162642 0.0431285 -0.177367 0.0404765 0.0324816 0.0244654 0.0433133 0.0342327 -0.0758973 -0.141946 0.284482 -0.0164452 -0.0286104 0.030274 0.115329 -0.0238405 -0.083238 -0.189829 0.0531362 0.018027 0.20592 -0.0101616 -0.0293172 0.00751484 0.161945 0.0499521 0.0782789 -0.00624908 0.0727289 -0.15913 0.103377 -0.00726604 -0.133217 -0.129621 -0.0804216 0.0525837 -0.0935772 -0.0917856 -0.0695868 -0.0528586 0.0252104 -0.14661 -0.197041 -0.00539444 -0.0707872 -0.111083 -0.0996153 0.0399093 0.00880751 0.144472 0.0748225 0.114174 0.130711 -0.0436302 0.0747804 -0.106272 0.300114 -0.0313138 0.0978751 0.0289048 -0.131339 0.121505 0.0336174 0.00671543 0.104458 -0.0360642 0.036736 0.0790512 -0.105326 -0.015715 -0.0557771 0.122586 -0.128044 0.15697 0.0605079 -0.123647 0.0805365 -0.0532318 -0.0819931 -0.165746 -0.136155 0.00159097 -0.0315894 -0.0644126 0.106322 -0.0744916 0.0577673
12 0.0352726 -0.00660883 0.0387056 -0.1985 -0.0361177 -0.0955409 -0.00397428 -0.0615161 -0.0753042 -0.286359 -0.0164727 0.00817812 0.0276054 0.049155 0.00958318 -0.160409 0.0143575 0.146163 -0.0201883 -0.0596947 -0.0718958 -0.0157671 -0.0366943 -0.119288 -0.183881 0.0354713 0.0596647 0.0109618 -0.113927 -0.0984144 -0.112374 -0.135439 -0.0798068 0.0306088 -0.0435753 -0.175353 -0.0354607 0.00346646 0.117872 -0.0201428 -0.0145719 -0.162383 -0.0349168 -0.119332 0.0600935 0.0495989 0.038193 -0.0113377 0.0144735 -0.0736867 -0.172711 0.258155 -0.106952 -0.00556772 0.0195398 0.0728084 -0.0276707 -0.0731847 -0.180828 0.0917281 0.058442 0.13206 0.0400338 -0.0338604 0.025541 0.208939 0.0467087 0.0886723 0.0665336 0.0114589 -0.175064 0.126828 -0.027142 -0.125569 -0.0910442 -0.0919263 0.0596277 -0.103823 -0.0969183 -0.0303263 -0.0997732 0.118839 -0.117881 -0.173941 -0.0219961 0.0292385 -0.0955665 -0.120116 0.00894108 0.0183102 0.10679 0.048069 0.0879042 0.142003 -0.0600022 0.107042 -0.0966675 0.334397 -0.0260966 0.160214 0.093839 -0.156141 0.135479 -0.0147878 0.0289929 0.121988 -0.0681519 0.0356592 0.160282 -0.0562871 -0.0196038 -0.065474 0.109757 -0.15211 0.188192 0.00938012 -0.106144 0.0953136 -0.0970791 -0.0346492 -0.179498 -0.0719148 -0.0196334 -0.0127112 -0.027273 0.0575065 -0.147016 0.0518792
11 -0.00617137 0.00135819 -0.00531987 -0.100481 0.00395993 -0.100993 0.00552533 -0.0146775 -0.0416141 -0.219684 0.00376793 0.0770463 0.0607986 0.0818314 0.0146473 -0.13284 0.0693465 0.123186 0.0533623 -0.0376826 -0.0748425 -0.00359743 -0.101007 -0.0665355 -0.0838251 0.00599193 0.037128 -0.0528936 -0.0913805 -0.0941541 -0.0966268 -0.148958 -0.0575121 0.111927 -0.0922702 -0.140393 -0.0455039 -0.0161812 0.175153 0.0113578 -0.00870398 -0.17665 -0.0557186 -0.0926682 0.122261 0.0257418 0.0233128 -0.100796 0.00715825 -0.0680741 -0.124928 0.271575 -0.0591149 0.0622447 0.0254563 0.0277877 -0.051718 -0.0486036 -0.215396 0.0744514 -0.014618 0.0860793 0.0882238 -0.0532404 0.0167892 0.188715 0.0212001 0.0356099 0.0950679 -0.0406833 -0.0343184 0.0321373 -0.0354125 -0.0932914 -0.0508108 -0.0729296 0.120951 -0.0372578 -0.0943106 -0.00535724 -0.174622 0.0714561 -0.12921 -0.149747 -0.0269069 0.0387684 -0.138564 -0.12882 0.0166132 0.00639513 0.110172 -0.0126392 0.057381 0.08538 -0.0249005 0.110428 -0.0647175 0.326589 0.00616237 0.199998 0.0756905 -0.140102 0.0610484 0.0161047 0.0147376 0.0905898 -0.0498759 0.00293317 0.178738 -0.0682689 -0.0704911 -0.0798175 0.168197 -0.0888316 0.0676881 0.0502423 -0.0613913 0.0663887 -0.171407 -0.0589086 -0.181782 -0.0942695 -0.0553722 -0.0708939 0.0441599 0.037572 -0.216673 0.0104966
10 -0.125458 -0.0437556 -0.109838 0.0294062 0.0356216 -0.121264 0.101309 0.071977 0.0352476 -0.0987864 0.0893142 0.22853 0.160018 0.18937 0.0638638 -0.153968 0.225358 0.126353 0.269892 -0.0368897 -0.0902199 -0.00863851 -0.307273 0.050663 0.0244901 -0.102343 0.0414691 -0.17488 -0.0204916 -0.113466 -0.190906 -0.228306 -0.00877452 0.24291 -0.167644 -0.137147 -0.115496 -0.0645857 0.290233 0.128696 -0.0830095 -0.20043 -0.17476 -0.0116149 0.31572 0.0411678 -0.0567157 -0.383106 -0.0229753 -0.0658003 -0.137114 0.372713 -0.0425531 0.227295 0.00788141 -0.0884713 -0.141251 0.054742 -0.2927 0.0710589 -0.107699 -0.0555537 0.238152 -0.102942 0.0518045 0.196857 -0.0648633 -0.0683797 0.252398 -0.171875 0.204624 -0.081596 -0.0685659 -0.0781369 0.0219839 -0.0481979 0.309019 0.0903177 -0.0739117 0.117957 -0.386338 0.00929015 -0.168937 -0.127866 -0.0837223 0.148998 -0.251769 -0.182734 0.0382321 -0.00807254 0.09375 -0.140754 -0.0209541 -0.0311945 0.00607198 0.194985 -0.0311474 0.350787 0.0969447 0.320325 0.105061 -0.13952 -0.0867915 -0.0836364 0.0910693 0.0725955 -0.0726772 -0.0081181 0.292602 -0.0326381 -0.197763 -0.11516 0.262814 0.0325048 -0.105062 0.0845456 0.0317302 0.0424447 -0.356493 -0.0273289 -0.226519 -0.0929482 -0.127516 -0.161682 0.132732 -0.0573761 -0.417524 -0.0754366
8 0.0536014 0.0583411 0.00933656 -0.0404034 0.0822476 -0.108878 -0.121168 -0.00294444 -0.0807276 -0.213924 -0.140037 0.0682194 -0.000128373 0.0918469 0.00675031 -0.0892424 -0.0420584 0.172133 0.0800315 0.00785904 -0.0768113 0.0429135 -0.133369 -0.0730073 -0.0636279 0.0640421 0.0431757 -0.100389 -0.0552244 -0.0336536 0.0330969 -0.170299 -0.0402297 0.1092 -0.0715631 -0.0305142 -0.0330459 0.00280201 0.118725 -0.0667158 0.0762368 -0.127009 0.0585101 -0.166062 0.0904582 -0.00885773 0.00222888 -0.0292723 0.00465052 -0.0511176 -0.0700067 0.280849 0.117668 0.0583236 0.0255329 0.108509 -0.0410849 -0.0538276 -0.148145 0.0165895 -0.080002 0.123389 -0.00651226 -0.0333648 0.0283528 0.145605 0.0209888 -0.0293598 -0.0546684 0.00844732 0.0389612 -0.0230618 -0.0171803 -0.133038 -0.0740322 -0.0487593 0.146931 0.00931703 -0.139385 -0.0647607 -0.150636 -0.0904335 -0.173725 -0.191783 0.0156092 -0.0876017 -0.181957 -0.0878685 0.0505402 -0.0125298 0.175959 0.010993 0.0962695 0.0446652 0.00123582 0.0707625 -0.0167148 0.25378 -0.00726668 0.0945672 -0.0433417 -0.114794 0.0238211 0.100888 -0.000868733 0.0833289 -0.0105292 -0.00681138 0.0620341 -0.158104 -0.0570384 -0.0845575 0.198989 -0.0154758 -0.0458374 0.152496 -0.0657068 0.0542589 -0.0912227 -0.13515 -0.137334 -0.137904 -0.01787 -0.0833369 -0.00838394 0.095944 -0.103746 0.0201205
7 0.100435 -0.0306467 0.0552731 -0.218701 0.0148457 -0.116334 -0.0861207 -0.0416326 -0.0956256 -0.293031 -0.0881753 -0.0337518 0.0149644 0.0623263 -0.0028891 -0.123081 -0.0535102 0.149108 -0.00760583 -0.0799809 -0.0448631 -0.0236524 -0.046892 -0.141687 -0.189362 0.0954525 0.0892466 -0.0138971 -0.109783 -0.0534689 -0.0453586 -0.170686 -0.0599147 0.0459137 -0.0682631 -0.125486 -0.0154769 -0.034197 0.11748 -0.0654399 0.0241781 -0.209469 0.0326669 -0.143778 0.0474802 0.00390476 0.00830716 0.0437421 0.00228664 -0.0796701 -0.170018 0.275228 -0.0156527 -0.0384436 0.00475015 0.0834913 -0.0248342 -0.0890976 -0.169308 0.0345042 0.0364741 0.172745 1.9665e-05 -0.00723212 0.032512 0.190238 0.0560948 0.0525202 -0.0186781 0.0279463 -0.14764 0.0753648 -0.0139446 -0.149984 -0.0973489 -0.102123 0.0399967 -0.0856412 -0.12353 -0.0433366 -0.097211 0.0498138 -0.104617 -0.194318 0.01669 -0.0755478 -0.100851 -0.127107 0.0166464 0.0176897 0.139268 0.0631742 0.13815 0.139782 -0.0252231 0.0682867 -0.0989465 0.321795 0.000752013 0.133028 0.0628321 -0.152305 0.131451 0.0877174 -0.0411566 0.100788 -0.0383819 -0.00155521 0.121625 -0.0767894 -0.0284146 -0.0699698 0.115452 -0.108711 0.152929 0.0682373 -0.114708 0.0607662 -0.0668773 -0.0933556 -0.171928 -0.102142 -0.00286645 -0.0261774 -0.000815957 0.0749138 -0.0966367 0.0747533
6 -0.066787 -0.0748436 -0.0803238 -0.0374081 0.0235639 -0.113855 0.082131 0.0620635 0.0145949 -0.10413 0.0742953 0.14933 0.15976 0.157758 0.0436434 -0.143526 0.185324 0.0857415 0.229405 -0.0811886 -0.0742038 -0.0273764 -0.246427 0.0171581 0.0069512 -0.0644538 0.0590649 -0.137785 -0.0301687 -0.089477 -0.168024 -0.234789 -0.000869524 0.188398 -0.139347 -0.109818 -0.0677769 -0.0696174 0.234095 0.114738 -0.0737174 -0.197798 -0.139337 0.00338445 0.234773 0.00451042 -0.036583 -0.287226 -0.0366735 -0.0433161 -0.12851 0.298346 -0.0414374 0.15714 0.00121025 -0.0862495 -0.117063 0.045403 -0.222324 0.047328 -0.0638724 -0.041705 0.181078 -0.0695094 0.0553009 0.187109 -0.0487913 -0.0497009 0.202826 -0.157875 0.143974 -0.0791905 -0.0613483 -0.0694778 0.0254773 -0.0735938 0.224665 0.0513066 -0.0725977 0.10186 -0.328933 0.0435734 -0.128248 -0.105797 -0.0548712 0.118038 -0.197616 -0.164021 0.0171743 -0.00516679 0.0775291 -0.099503 0.0117476 -0.00888235 -0.00747289 0.136255 -0.0374179 0.289733 0.080612 0.265053 0.117617 -0.117601 -0.0349907 -0.0423073 0.0462202 0.0511146 -0.0562234 -0.0221412 0.249144 -0.00609592 -0.146574 -0.088179 0.201313 0.00347894 -0.0547044 0.0376694 0.015436 0.0246173 -0.288437 -0.0396648 -0.178827 -0.0589823 -0.107068 -0.131015 0.134867 -0.0537262 -0.334237 -0.0563024
5 -0.0724771 -0.107512 -0.0987148 -0.0738256 0.0260621 -0.131263 0.107236 0.0757557 0.0137352 -0.118577 0.0908268 0.15625 0.185717 0.173269 0.061847 -0.179365 0.224715 0.0916076 0.262598 -0.109409 -0.073631 -0.0487005 -0.271652 0.0161799 -0.00985258 -0.0667183 0.082851 -0.141373 -0.0257318 -0.103951 -0.20175 -0.268509 0.0128055 0.222816 -0.167468 -0.134516 -0.0707618 -0.105743 0.259492 0.1383 -0.10105 -0.250412 -0.175686 0.0175225 0.288484 -0.00560649 -0.0566359 -0.315078 -0.0514583 -0.0551717 -0.178854 0.35422 -0.0517173 0.188002 -0.006919 -0.109287 -0.12111 0.0569204 -0.269618 0.0529458 -0.0443838 -0.0566803 0.233601 -0.0749182 0.0567509 0.203759 -0.0478887 -0.0676021 0.227537 -0.183295 0.145525 -0.086913 -0.0632848 -0.0716048 0.0321281 -0.0920562 0.234603 0.0567815 -0.0890749 0.128389 -0.372705 0.0632525 -0.116213 -0.0986753 -0.0725421 0.127068 -0.197439 -0.199754 0.0200765 -0.0157882 0.0801521 -0.113479 0.0265308 -0.0120852 -0.0125841 0.159976 -0.0473354 0.32899 0.111747 0.311557 0.157489 -0.135282 -0.0483778 -0.0500477 0.0369569 0.0547158 -0.0552944 -0.034071 0.294455 0.0199238 -0.15848 -0.0873742 0.197573 0.014997 -0.0499508 0.0361138 0.0205009 0.0220205 -0.323017 -0.0430793 -0.187931 -0.0460397 -0.112147 -0.135343 0.160393 -0.0747807 -0.37264 -0.061221
4 -0.119124 -0.0713492 -0.105762 0.00601587 0.0259296 -0.11937 0.115259 0.0692929 0.0334933 -0.103628 0.111854 0.223067 0.183158 0.189721 0.0589011 -0.159325 0.226985 0.122207 0.259648 -0.0619637 -0.0926612 -0.010538 -0.300441 0.0418423 0.0083602 -0.0922442 0.0612372 -0.177701 -0.03826 -0.108712 -0.215441 -0.238387 -0.0223277 0.209316 -0.152217 -0.139735 -0.106657 -0.0812578 0.274507 0.138042 -0.10371 -0.190003 -0.185838 0.0219007 0.283317 0.0281457 -0.0461226 -0.365886 -0.0269181 -0.0542909 -0.137138 0.322932 -0.0776227 0.198221 -1.92256e-05 -0.130355 -0.130691 0.0630806 -0.26988 0.0677528 -0.0912172 -0.06841 0.233397 -0.0912379 0.047324 0.188799 -0.0620137 -0.052472 0.276812 -0.170416 0.174285 -0.0817636 -0.0616057 -0.0636011 0.0376344 -0.0639992 0.280374 0.0732547 -0.0402265 0.138182 -0.367741 0.0344047 -0.141939 -0.101623 -0.0795352 0.156705 -0.225433 -0.172034 0.0395306 -0.00343746 0.0767056 -0.133776 -0.0211871 -0.0239091 0.000828912 0.184393 -0.0404058 0.295019 0.0945954 0.288709 0.11573 -0.124639 -0.0694035 -0.0998347 0.0876752 0.047835 -0.0572138 -0.00167058 0.276412 0.00190956 -0.180042 -0.0862852 0.217759 0.00776487 -0.0645791 0.0342094 0.0404365 0.0230143 -0.325931 0.00316176 -0.193036 -0.0765418 -0.119254 -0.148194 0.127583 -0.0649225 -0.378597 -0.0748013
3 0.0510801 0.0167839 0.0656712 -0.210555 -0.0253567 -0.0851675 -0.0574761 -0.098999 -0.103065 -0.327563 -0.0461174 -0.00729704 -0.0270901 0.0634722 -0.0125132 -0.152084 -0.0578076 0.186651 -0.0438748 -0.0328697 -0.0431552 -0.00671308 -0.0193436 -0.149878 -0.245474 0.07484 0.0880724 0.00665592 -0.113069 -0.0681956 -0.0774175 -0.122153 -0.113497 0.0131515 -0.0285849 -0.161819 -0.0457621 0.0123071 0.0919694 -0.0745612 -0.00646624 -0.136478 0.0160666 -0.170246 0.025187 0.0599038 0.0377398 0.059984 0.0424273 -0.0719204 -0.185594 0.281442 -0.0902677 -0.032578 0.0174533 0.107031 -0.017137 -0.085066 -0.196459 0.0792625 0.0751864 0.20956 0.0158959 -0.0352064 0.0230296 0.210897 0.0610321 0.121474 0.0414985 0.0584515 -0.237282 0.15672 -0.0221878 -0.155017 -0.144403 -0.109001 0.0431663 -0.136708 -0.0881988 -0.0513601 -0.0740527 0.0837869 -0.136912 -0.222346 -0.039762 -0.00858613 -0.093178 -0.13701 0.0298889 0.0241815 0.126777 0.0902805 0.116609 0.145496 -0.0727323 0.100451 -0.138956 0.338124 -0.0457697 0.124967 0.0786996 -0.152608 0.167332 -0.00733411 0.0251987 0.120126 -0.0650299 0.0489423 0.116685 -0.0665218 0.00579339 -0.0375886 0.108014 -0.167783 0.234993 0.0180294 -0.130736 0.0997816 -0.0596399 -0.0430027 -0.195833 -0.10797 -0.001007 -0.0124028 -0.0700271 0.0883501 -0.0984232 0.0660544
2 0.164091 -0.0499522 0.0717172 -0.215595 0.0700301 -0.0812757 -0.137625 0.000475323 -0.114359 -0.223731 -0.176134 -0.133118 -0.00674851 0.0538184 -0.0487367 -0.0898406 -0.0890685 0.107307 0.0761443 -0.124901 0.0268754 -0.0282121 -0.0911152 -0.149036 -0.144468 0.134887 0.0999228 -0.0388523 -0.0677221 0.0262826 0.0793852 -0.209397 0.0107405 0.0868708 -0.085919 0.0155803 0.045811 -0.0702325 0.071421 -0.0826159 0.0853962 -0.265334 0.0918406 -0.139274 0.0509093 -0.0721598 -0.0429313 0.0745125 -0.0633679 -0.0680687 -0.125984 0.303357 0.177949 -0.0527325 0.0199523 0.11012 -0.0426423 -0.0633059 -0.108043 -0.0682519 -0.0112713 0.182758 -0.0376414 0.0309964 0.0625293 0.211177 0.057402 0.00134597 -0.138497 -0.00659761 -0.0518795 -0.0562749 -0.00833626 -0.187426 -0.0871248 -0.152817 0.0750874 -0.0269057 -0.193115 -0.0667103 -0.135641 -0.0357075 -0.109392 -0.221304 0.0905053 -0.197409 -0.129761 -0.149393 0.0359185 0.000736379 0.192904 0.080962 0.243662 0.0921147 0.0169943 -0.0105924 -0.0734011 0.24936 0.0525658 0.0571325 0.0127478 -0.101992 0.105259 0.219192 -0.131524 0.0708501 0.00321562 -0.0690344 0.060998 -0.0789829 -0.0231753 -0.0539709 0.141867 -0.033867 0.0422597 0.125226 -0.0900216 0.0242486 -0.0341478 -0.188517 -0.126172 -0.0845216 0.0112114 -0.0523816 0.075895 0.0693503 -0.0139582 0.0677121
1 0.0398275 0.0307621 0.00549815 -0.155539 0.0371785 -0.125104 -0.0911202 -0.0373039 -0.0652332 -0.305201 -0.0431363 0.0745959 -0.00151206 0.0812322 0.00252176 -0.121209 -0.067752 0.20176 -0.0522084 0.0112051 -0.0817086 -0.00792378 -0.0145948 -0.125433 -0.173488 0.116223 0.0681654 -0.0484079 -0.117007 -0.0524694 -0.0619353 -0.126845 -0.115966 0.0795563 -0.0648381 -0.183806 -0.0563172 -0.0217526 0.187507 -0.0754607 -0.00285421 -0.218142 0.00944641 -0.192928 0.078158 0.0332215 0.0617536 0.00627866 0.0468414 -0.0823528 -0.168477 0.320561 -0.0815918 0.0169271 0.00029508 0.052444 -0.0522283 -0.094373 -0.266043 0.0906792 0.00611544 0.216503 0.0337779 -0.0758346 -0.00651549 0.129945 0.0473944 0.0659527 0.0105065 0.0767572 -0.150651 0.121899 -0.00166619 -0.0961889 -0.119694 -0.0614642 0.011367 -0.0891043 -0.0740513 -0.0738933 -0.045512 0.0290891 -0.153341 -0.171313 -0.0175207 -0.0648568 -0.0991347 -0.090695 0.0298347 0.00400484 0.125462 0.0382417 0.0912502 0.14381 -0.0546467 0.0864028 -0.097893 0.307199 -0.0500387 0.121986 0.0476841 -0.145063 0.132081 0.03295 -0.0058898 0.100182 -0.0368555 0.0408283 0.0682464 -0.133715 -0.0320251 -0.0658396 0.105734 -0.144704 0.161824 0.0594649 -0.147485 0.0698341 -0.0785308 -0.0890277 -0.177725 -0.165909 -0.00514622 -0.0524344 -0.0612839 0.113798 -0.102046 0.0550633
30 0.104995 0.0734952 0.0582152 -0.0956709 0.0912702 -0.121274 -0.199094 -0.0287134 -0.126274 -0.296315 -0.195897 0.0388715 -0.0405689 0.0761051 -0.00334643 -0.0823759 -0.138961 0.20819 0.0026741 0.0219787 -0.0730753 0.0448887 -0.0701365 -0.118883 -0.122658 0.147919 0.0641773 -0.0858328 -0.0866128 -0.00788854 0.0745838 -0.163881 -0.0895216 0.0562557 -0.0655619 -0.039501 -0.0149512 0.0125558 0.100749 -0.159294 0.10766 -0.141244 0.147174 -0.224816 0.0147736 -0.0262309 0.0200617 0.0888105 0.026928 -0.0556518 -0.0751442 0.269273 0.121815 -0.018393 0.0509069 0.150866 -0.0043588 -0.0893995 -0.154365 0.00429474 -0.066566 0.217943 -0.0813005 -0.0165175 0.0061739 0.123876 0.0457522 0.0104033 -0.108312 0.0913161 -0.0477598 0.0108065 0.00516212 -0.137448 -0.127449 -0.0588802 0.0809354 -0.0431242 -0.127548 -0.107821 -0.0540572 -0.085281 -0.185604 -0.213346 0.0357342 -0.157277 -0.154703 -0.0722836 0.0565118 -0.00902423 0.203483 0.0630859 0.12345 0.0946556 -0.0192798 0.0365133 -0.0658037 0.265611 -0.0429061 0.0477496 -0.059403 -0.135944 0.0832965 0.144393 -0.0212485 0.0716519 0.0146031 0.0181215 0.0181903 -0.190705 -0.0143737 -0.0708266 0.207616 -0.0702021 0.0440747 0.14911 -0.126115 0.0464887 -0.0391408 -0.163062 -0.140833 -0.193784 -0.00192528 -0.089609 -0.05498 0.149245 -0.0341094 0.0476161
9 0.136699 0.0138054 0.0698187 -0.141235 0.0744334 -0.0992733 -0.167629 -0.0344344 -0.109605 -0.250339 -0.15921 -0.0300635 -0.040087 0.0700258 -0.0287065 -0.0485583 -0.132832 0.140668 0.0107054 -0.0300041 -0.032761 0.0243747 -0.0687339 -0.121352 -0.128812 0.128204 0.0796006 -0.0524972 -0.0799435 0.0292007 0.0606562 -0.151961 -0.0760188 0.0448657 -0.0677265 -0.0286625 -0.00903531 -0.036241 0.0990885 -0.128888 0.077291 -0.171929 0.119015 -0.185412 0.0197579 -0.0345737 -0.00610799 0.0781875 0.0003213 -0.0579334 -0.101559 0.283485 0.130022 -0.0424161 0.0179268 0.118772 -0.0366069 -0.0734791 -0.125405 -0.0269998 -0.0395142 0.211019 -0.0609476 0.00735141 0.0492299 0.168376 0.0411404 0.0211808 -0.103953 0.0612869 -0.0581478 -0.00656385 -0.00768193 -0.172993 -0.114209 -0.0963017 0.0756812 -0.0463434 -0.143798 -0.0825439 -0.0907854 -0.0780567 -0.148657 -0.233218 0.0566773 -0.188061 -0.151276 -0.0944435 0.0536217 0.00911744 0.195196 0.0804289 0.157295 0.098285 -0.00324145 0.019924 -0.0918616 0.287176 0.00355496 0.0627777 -0.0335868 -0.136573 0.108036 0.174253 -0.0717565 0.0750808 0.00214723 -0.0133187 0.0484281 -0.162454 -0.0429611 -0.0870817 0.191357 -0.0656752 0.0490655 0.145152 -0.108078 0.0300174 -0.041444 -0.168427 -0.164382 -0.172368 -0.000786021 -0.0873001 -0.0149765 0.128461 -0.032226 0.0686398
32 0.1015 0.0755686 0.0487874 -0.0660737 0.109066 -0.155058 -0.207949 -0.00713113 -0.135032 -0.251355 -0.260328 0.0402661 -0.017827 0.0800861 -0.0018618 -0.093818 -0.108131 0.240484 0.0953771 0.0010218 -0.0899951 0.0738805 -0.164347 -0.11654 -0.0846591 0.0990189 0.0409094 -0.10233 -0.0604057 -0.00971464 0.114356 -0.225385 -0.0276467 0.101402 -0.054934 0.00606094 -0.0174272 0.0376229 0.0610704 -0.0979193 0.135072 -0.10462 0.127037 -0.210043 0.071535 -0.00983304 -0.0267464 -0.00439183 -0.00858312 -0.0445387 -0.0523961 0.284216 0.20357 0.0221839 0.043639 0.185181 -0.0237802 -0.0866099 -0.0901037 -0.0212665 -0.106744 0.142179 -0.0860773 -0.00782769 0.0324288 0.133397 0.0386183 -0.040657 -0.167959 0.0491847 0.0497093 -0.0304001 -0.0109097 -0.166828 -0.0959599 -0.0313912 0.129138 0.00701386 -0.179759 -0.106841 -0.105855 -0.152999 -0.186028 -0.219097 0.0711552 -0.152457 -0.180925 -0.0351796 0.0558797 0.00150384 0.209537 0.0600802 0.134439 0.0423367 0.0334735 0.0323833 0.0281139 0.205216 -0.0168337 0.0172247 -0.114931 -0.101092 0.00904289 0.157227 -0.00817765 0.099029 -0.00649711 -0.0113514 -0.0118181 -0.207519 -0.0321167 -0.0982094 0.199308 0.0209927 -0.0987576 0.192677 -0.0633088 0.0615855 -0.00209372 -0.171913 -0.0901182 -0.130319 0.0162874 -0.0446694 -0.0373435 0.12891 -0.00539905 0.0369186
28 0.113389 -0.0429845 0.0339303 -0.162565 0.0657199 -0.106162 -0.103889 0.0101145 -0.0854522 -0.221946 -0.11806 -0.0244889 0.0271187 0.0838104 -0.00375457 -0.100506 -0.0331533 0.122982 0.0769856 -0.0890468 -0.0262074 -0.0174486 -0.102804 -0.106364 -0.121743 0.0788449 0.0875181 -0.0515598 -0.0657826 -0.0113542 0.00470024 -0.188421 0.00773735 0.100312 -0.0803665 -0.0437384 0.00206554 -0.078834 0.10381 -0.0380731 0.0405318 -0.202754 0.0357428 -0.111586 0.0814703 -0.0358569 -0.0354323 0.0110115 -0.029702 -0.0691422 -0.124936 0.254399 0.0909585 -0.00197924 -0.0188977 0.0569152 -0.0456066 -0.0557793 -0.127981 -0.0136936 -0.00824029 0.109507 0.0197661 -0.00510606 0.048532 0.185289 0.0382357 -0.0222975 -0.0576669 -0.0256907 -0.028305 -0.0213716 -0.0144152 -0.155228 -0.0599564 -0.0917614 0.0846645 -0.010918 -0.15415 -0.0187327 -0.160613 -0.0306995 -0.0932146 -0.179838 0.0322975 -0.124398 -0.130607 -0.124341 0.0300887 0.00291777 0.147196 0.0304587 0.157368 0.0686502 0.0166835 0.054984 -0.0512774 0.262523 0.0517478 0.124424 0.0331305 -0.122707 0.0576345 0.138947 -0.0858579 0.0735846 -0.0176246 -0.0513124 0.105821 -0.0759593 -0.0623315 -0.0721271 0.117734 -0.00486904 0.0161421 0.118489 -0.0583676 0.031793 -0.0810025 -0.12308 -0.131679 -0.0841836 -0.0023672 -0.0476522 0.0541822 0.0459003 -0.0916739 0.0554331
27 0.201856 -0.0624175 0.0777293 -0.206996 0.0812974 -0.112477 -0.178518 0.0196121 -0.143929 -0.227406 -0.241826 -0.123636 0.0275993 0.0502731 -0.0363919 -0.0935601 -0.082485 0.116667 0.108962 -0.15107 -0.00068424 -0.00863479 -0.12352 -0.149032 -0.120024 0.140219 0.0883833 -0.0461535 -0.0749619 0.0329244 0.110287 -0.251537 0.034721 0.0869259 -0.0676752 0.0409801 0.0537033 -0.0661931 0.0423137 -0.0792507 0.130851 -0.237749 0.121344 -0.129574 0.0449774 -0.0952193 -0.0697448 0.0749107 -0.0806821 -0.0560752 -0.101383 0.244665 0.216267 -0.0611065 4.22443e-05 0.124164 -0.0275671 -0.0775551 -0.0536149 -0.0920524 -0.0363615 0.131295 -0.0716912 0.0695594 0.0653337 0.222625 0.068345 -0.0414998 -0.179116 -0.0116033 -0.00212826 -0.0801451 -0.0167251 -0.202242 -0.0603397 -0.133088 0.079021 -0.0125839 -0.231165 -0.0652448 -0.164703 -0.0713538 -0.0976589 -0.220557 0.124255 -0.225329 -0.138345 -0.118524 0.0321597 0.0117609 0.210776 0.0802448 0.250431 0.0871291 0.0598297 -0.0193499 -0.0243305 0.249303 0.0634182 0.0701294 -0.0186641 -0.128853 0.0706961 0.25863 -0.148645 0.0933213 0.0108506 -0.0822495 0.0474881 -0.111833 -0.0434463 -0.0901616 0.153328 0.00449283 -0.0251491 0.167935 -0.0693292 0.0233298 -0.0219713 -0.210689 -0.107628 -0.0811082 0.0115902 -0.0273141 0.0780387 0.0651577 -0.000855995 0.0836081
16 -0.0892347 -0.0972687 -0.110527 -0.0313522 0.0151223 -0.0987887 0.123999 0.06618 0.044512 -0.0472284 0.127932 0.148468 0.168993 0.157708 0.0512035 -0.13199 0.229576 0.0491116 0.247356 -0.0979159 -0.0604935 -0.0553451 -0.253561 0.0447591 0.0225298 -0.101146 0.0614885 -0.132923 -0.00353633 -0.0966459 -0.20196 -0.220775 0.0177343 0.215979 -0.158707 -0.126505 -0.0754281 -0.0921776 0.25468 0.145446 -0.0947353 -0.225889 -0.170864 0.0304952 0.280723 0.00410534 -0.0502206 -0.317672 -0.0470166 -0.0521198 -0.155224 0.337988 -0.0512823 0.191858 -0.0135305 -0.108573 -0.13345 0.0587978 -0.262637 0.0520298 -0.0592285 -0.0634298 0.231413 -0.0777466 0.0609365 0.199852 -0.0615792 -0.0629469 0.23053 -0.189698 0.1661 -0.0849029 -0.0672852 -0.0728097 0.0425722 -0.0818116 0.253527 0.072924 -0.0806576 0.124873 -0.375623 0.0542435 -0.118046 -0.101948 -0.0733088 0.13427 -0.20611 -0.198523 0.0173708 -0.00206681 0.0663563 -0.122575 0.0103576 -0.0237358 -0.00969431 0.159714 -0.043756 0.315292 0.0995557 0.302134 0.137446 -0.121901 -0.0457846 -0.0450278 0.0411949 0.056081 -0.0577364 -0.0349187 0.283939 0.0210693 -0.160139 -0.093271 0.203876 0.0261804 -0.066507 0.0386598 0.0279473 0.0208248 -0.318422 -0.0357235 -0.193849 -0.0538213 -0.12025 -0.141049 0.155154 -0.0729151 -0.369866 -0.0654213
33 0.11495 0.0179369 0.0581817 -0.0785537 0.0823005 -0.0917412 -0.157895 -0.0232465 -0.0876765 -0.211145 -0.162076 -0.00218791 -0.0161766 0.0812902 -0.0230415 -0.0375704 -0.107212 0.145124 0.0595503 -0.0198214 -0.0499313 0.0330528 -0.123151 -0.095085 -0.0937482 0.105639 0.0726637 -0.08839 -0.0743216 0.0224555 0.070163 -0.184864 -0.0671687 0.0592354 -0.0816451 -0.00444172 -0.0176724 -0.0213658 0.10192 -0.104874 0.0821867 -0.150174 0.110474 -0.169976 0.0404136 -0.0354193 -0.0174653 0.0177941 -0.00606809 -0.0432268 -0.0648607 0.276395 0.166484 -0.0298567 0.0349274 0.118977 -0.0564713 -0.0586579 -0.115206 -0.038026 -0.0851938 0.173473 -0.0647655 0.00486136 0.0501975 0.160075 0.0232819 -0.00672627 -0.106874 0.0438857 0.0221916 -0.0493866 -0.0188321 -0.166953 -0.0993449 -0.0883455 0.123625 -0.01471 -0.148853 -0.0771836 -0.122176 -0.112675 -0.181899 -0.231863 0.0663205 -0.178052 -0.191305 -0.0839051 0.0560309 0.0119768 0.212452 0.0707309 0.142246 0.0767268 0.00929057 0.0150227 -0.0616981 0.267494 0.00644018 0.0575657 -0.0622394 -0.116445 0.0693665 0.181383 -0.0496823 0.0710067 0.00220137 -0.0218451 0.0451551 -0.183909 -0.0579094 -0.10702 0.222864 -0.032808 -0.0235826 0.155983 -0.08597 0.0266887 -0.0575672 -0.189677 -0.155882 -0.175069 -0.0172031 -0.105715 0.000414297 0.131667 -0.0401892 0.0470618
14 0.101191 0.0632628 0.0300391 -0.0125718 0.120844 -0.114748 -0.20366 0.0127503 -0.104225 -0.180419 -0.226808 0.0377989 -0.0197831 0.0830037 -0.0147061 -0.0437773 -0.100888 0.168821 0.109174 0.00805644 -0.0516281 0.0622888 -0.154416 -0.0678534 -0.0296034 0.101317 0.0421193 -0.133491 -0.0329689 0.0163865 0.116119 -0.206054 -0.0246305 0.120965 -0.0766972 0.0360261 -0.0129758 0.00757564 0.101728 -0.100593 0.132445 -0.137772 0.130553 -0.189296 0.0767863 -0.0396962 -0.0164875 -0.00999878 -0.0114652 -0.0414682 -0.040504 0.290049 0.218679 0.0383935 0.0340159 0.132702 -0.0404824 -0.0543416 -0.115043 -0.0321413 -0.126746 0.148915 -0.0624252 -0.0201791 0.0409435 0.125484 0.0268979 -0.05884 -0.161745 0.0299095 0.0968778 -0.0845017 -0.0158645 -0.153815 -0.0853698 -0.0468309 0.146187 0.0366225 -0.174931 -0.0905395 -0.143072 -0.168777 -0.19505 -0.219091 0.0691395 -0.179155 -0.20026 -0.0691956 0.058489 -0.00618946 0.223319 0.0332037 0.137942 0.0207017 0.0322023 0.0144781 0.00562002 0.215187 -0.0085487 0.0306532 -0.112658 -0.0995766 0.0124376 0.191011 -0.0374053 0.0665055 0.0152824 -0.0258421 -0.000847828 -0.203093 -0.0460288 -0.0862109 0.244108 0.0272975 -0.115852 0.205146 -0.0712634 0.032827 -0.0532524 -0.199609 -0.110998 -0.166055 -0.00535007 -0.101924 0.012829 0.126004 -0.0384281 0.0153179
15 0.0741277 0.102111 0.0379671 -0.0212971 0.0913028 -0.117458 -0.18127 -0.0240713 -0.122157 -0.220874 -0.205252 0.0584676 -0.038913 0.0708333 -0.00578443 -0.0778501 -0.0933127 0.204443 0.0724782 0.0325481 -0.082007 0.077267 -0.127612 -0.0837572 -0.0554476 0.0740139 0.0281061 -0.105699 -0.0467832 -0.016642 0.0849458 -0.178518 -0.0434362 0.0937483 -0.0476424 0.00467829 -0.0199434 0.0525802 0.0791139 -0.104608 0.125567 -0.076894 0.120994 -0.20858 0.0565074 -0.00246864 0.00819768 0.00461336 0.00931275 -0.0355146 -0.0358683 0.277026 0.166388 0.0471928 0.0494576 0.171126 -0.0185415 -0.0673477 -0.105456 0.0025696 -0.101057 0.155298 -0.0749433 -0.0333279 0.0377759 0.131449 0.032813 -0.0169397 -0.126998 0.0439319 0.0369794 -0.0151765 -0.0184509 -0.151276 -0.102337 -0.0317842 0.143118 0.000519535 -0.16191 -0.102365 -0.11089 -0.123692 -0.203986 -0.220124 0.0357328 -0.109688 -0.184714 -0.0534927 0.0580914 -0.00229231 0.199227 0.0469792 0.105609 0.0330121 0.00495953 0.0446351 0.0024476 0.239651 -0.0419459 0.0369358 -0.0981989 -0.111179 0.0313615 0.128683 0.0126923 0.0876784 -0.00548244 0.00544421 0.0146967 -0.202078 -0.0221314 -0.0838942 0.241244 -0.00922684 -0.0728148 0.169811 -0.075586 0.0623251 -0.0465937 -0.15599 -0.115762 -0.14569 -0.00656536 -0.0799033 -0.0312794 0.136824 -0.0587437 0.00974216
18 0.0953444 0.0426147 0.0318074 -0.0594905 0.0902926 -0.0958614 -0.157491 0.00170592 -0.104593 -0.186853 -0.190647 0.00261207 -0.0143639 0.0715655 -0.0223434 -0.0766929 -0.0693102 0.150997 0.0977524 -0.0194752 -0.0375254 0.0376263 -0.125369 -0.0836792 -0.062743 0.0815307 0.0422514 -0.0930232 -0.044009 -0.00276187 0.0830997 -0.190346 -0.0105583 0.107383 -0.0694509 0.0254765 0.00253947 0.000870338 0.0838209 -0.0773726 0.10756 -0.143879 0.089659 -0.161754 0.0751902 -0.0323209 -0.0137701 0.00282675 -0.0244035 -0.0449662 -0.0570307 0.276734 0.169565 0.034382 0.0296864 0.126017 -0.034347 -0.0547515 -0.11209 -0.01398 -0.0823277 0.140186 -0.0390419 -0.0161278 0.0429576 0.157847 0.0342328 -0.0369345 -0.127593 0.00704522 0.0392236 -0.0551219 -0.0181571 -0.15422 -0.0806082 -0.0744235 0.13983 0.0153208 -0.174336 -0.0791644 -0.147914 -0.108337 -0.170134 -0.206149 0.0561557 -0.144228 -0.178691 -0.0913384 0.0488518 -0.00852155 0.201004 0.0351251 0.153219 0.0395506 0.016253 0.0295332 -0.00760139 0.236062 -0.00112829 0.0496283 -0.0649722 -0.101021 0.0366087 0.167524 -0.0421983 0.0802338 0.0022343 -0.0245256 0.028043 -0.157798 -0.0345401 -0.0704029 0.213048 0.00499739 -0.0664221 0.170382 -0.0716725 0.0504735 -0.0622762 -0.180574 -0.118032 -0.1272 0.00179497 -0.0748615 0.0266454 0.101065 -0.0614187 0.0216463
20 0.0746781 0.118291 0.045552 -0.000813408 0.103119 -0.121292 -0.198492 -0.0291343 -0.123636 -0.232988 -0.222077 0.0623958 -0.0495822 0.0711092 -0.00965221 -0.0609209 -0.109077 0.208392 0.0590909 0.0560366 -0.0845892 0.0865188 -0.125713 -0.0794936 -0.0492007 0.088121 0.019052 -0.114951 -0.056718 -0.0171327 0.111947 -0.166865 -0.066523 0.0958324 -0.0594842 0.0146308 -0.0284041 0.0530267 0.0915408 -0.124472 0.136614 -0.0782574 0.135035 -0.224145 0.0559224 -0.00723051 0.0110353 0.00729021 0.0155274 -0.0392223 -0.0256864 0.287634 0.184417 0.0437261 0.0611477 0.184671 -0.0201648 -0.0748226 -0.113599 0.0033489 -0.117686 0.170404 -0.0819276 -0.0287452 0.0262405 0.110219 0.0289772 -0.0211683 -0.141194 0.0622415 0.0531134 -0.0318919 -0.017331 -0.141377 -0.104238 -0.0240112 0.144776 0.00778359 -0.153334 -0.115033 -0.0905331 -0.14809 -0.205844 -0.213968 0.0400832 -0.126923 -0.1907 -0.0396833 0.0605042 -0.008956 0.207146 0.0488791 0.0913888 0.0316135 0.00439095 0.0302122 0.00371894 0.228242 -0.0489431 0.0197225 -0.127521 -0.104517 0.0255385 0.142726 0.0148515 0.0773524 0.00290543 0.0105856 -0.00525251 -0.217969 -0.0224984 -0.085135 0.253532 -0.011932 -0.0847161 0.186866 -0.0767929 0.0584819 -0.0432222 -0.174708 -0.119377 -0.168915 -0.00226262 -0.0917919 -0.0447645 0.152829 -0.0472452 0.0138166
22 0.119619 0.101795 0.0651599 -0.0305723 0.110971 -0.108272 -0.231777 -0.0201951 -0.13239 -0.242966 -0.248002 0.0257203 -0.0603295 0.0646655 -0.0267888 -0.0508348 -0.148606 0.195617 0.0436557 0.033989 -0.0652318 0.0847845 -0.104677 -0.0980507 -0.0730925 0.119559 0.0362329 -0.109007 -0.0609079 0.0105379 0.133596 -0.173821 -0.0549885 0.0846457 -0.0473145 0.0266221 -0.00782585 0.0341563 0.0751756 -0.142858 0.151192 -0.102199 0.156882 -0.236828 0.0289215 -0.017742 0.014247 0.0602117 0.0109613 -0.0497397 -0.0318527 0.280347 0.205387 0.00532272 0.0443769 0.183209 -0.0234306 -0.0897846 -0.103962 -0.00991728 -0.105199 0.202593 -0.106069 -0.0243154 0.0403795 0.141008 0.0437172 -0.0185947 -0.179031 0.0694503 0.0181328 -0.0321415 -0.00992815 -0.170499 -0.120666 -0.0432073 0.126235 -0.00383889 -0.17548 -0.130109 -0.0908189 -0.156876 -0.209869 -0.245496 0.0693787 -0.18259 -0.192399 -0.0512925 0.0625454 -0.00700511 0.230905 0.0662028 0.143079 0.0577014 0.0177366 0.0214141 -0.00748567 0.261005 -0.039801 0.0202032 -0.124239 -0.120143 0.0528668 0.192553 -0.0254476 0.0893659 0.00473237 -0.0098649 -0.00428818 -0.237134 -0.0272922 -0.091094 0.260394 -0.0166448 -0.0679757 0.213144 -0.0972859 0.0615971 -0.0333598 -0.199775 -0.131506 -0.184372 0.00647474 -0.0912873 -0.0256021 0.162835 -0.0323949 0.0362111
23 0.174998 -0.0381952 0.0499917 -0.16848 0.108711 -0.112697 -0.185728 0.0432176 -0.133468 -0.197291 -0.262062 -0.10992 0.0135098 0.0512174 -0.0239799 -0.0947943 -0.0628904 0.128924 0.137544 -0.12799 0.0124777 -0.010506 -0.139824 -0.12929 -0.0960176 0.120219 0.0769217 -0.0615297 -0.031533 0.0104545 0.123355 -0.256436 0.0750057 0.143536 -0.0761794 0.0424801 0.0460833 -0.0534201 0.0449872 -0.0618807 0.140334 -0.245526 0.10639 -0.143566 0.0919162 -0.0847537 -0.0750961 0.0495957 -0.0805881 -0.0640991 -0.103803 0.268133 0.232347 -0.00721902 0.000242169 0.134495 -0.0190157 -0.0800047 -0.0840778 -0.0724263 -0.0401237 0.117641 -0.0347144 0.042711 0.05871 0.201794 0.0714569 -0.0723737 -0.221207 -0.0165505 0.0185522 -0.0872181 -0.0151151 -0.202911 -0.0698665 -0.111455 0.0942541 0.0151072 -0.262156 -0.0787776 -0.179886 -0.103272 -0.105241 -0.224218 0.107417 -0.232745 -0.139674 -0.132332 0.0381201 -0.0058965 0.2208 0.0657411 0.266593 0.0530607 0.0680941 -0.00666387 0.014513 0.225058 0.0633592 0.0603558 -0.0429045 -0.111178 0.0269718 0.26317 -0.146791 0.0939304 0.0115353 -0.0945751 0.0241744 -0.11406 -0.0263919 -0.0726248 0.144333 0.0587027 -0.0693703 0.209725 -0.0660829 0.0343462 -0.0168911 -0.222744 -0.0860287 -0.068205 0.0331063 -0.019225 0.0882263 0.055206 0.004388 0.0746745
29 0.14531 0.0734203 0.0506197 -0.0787414 0.134609 -0.114693 -0.235756 0.0149822 -0.148391 -0.219626 -0.315847 -0.0642634 -0.0466696 0.0237247 -0.0274013 -0.0745824 -0.107954 0.181906 0.098487 -0.0268225 -0.0220713 0.0458541 -0.132188 -0.11332 -0.0658319 0.139772 0.0329725 -0.0776478 -0.0454578 -0.00303873 0.185294 -0.231134 0.00650625 0.13174 -0.0828425 0.061207 0.0317097 0.0232639 0.0583592 -0.116779 0.176967 -0.186975 0.148923 -0.188703 0.0846093 -0.0691523 -0.0448569 0.0541595 -0.0398987 -0.0556568 -0.0515171 0.298924 0.260937 0.0223635 0.0581402 0.215113 0.00184226 -0.0841393 -0.109442 -0.0332016 -0.0919039 0.156262 -0.0708771 0.0290302 0.0154884 0.123123 0.0634539 -0.0790942 -0.247409 0.0497054 0.0614224 -0.0842084 -0.0132323 -0.156148 -0.0834596 -0.0611923 0.111027 0.0290716 -0.231735 -0.136427 -0.100788 -0.144613 -0.146857 -0.200746 0.0907312 -0.219813 -0.146359 -0.0754102 0.0432725 -0.0259312 0.234413 0.0598899 0.199261 0.0368675 0.0404421 -0.0268134 0.0331697 0.223205 0.00849103 0.0187762 -0.126013 -0.0977885 0.00309416 0.245505 -0.0773199 0.100952 0.0290026 -0.0426296 -0.0342022 -0.182883 -0.00529308 -0.0760024 0.215429 0.0387532 -0.113745 0.233599 -0.0779418 0.0546495 -0.0207334 -0.246608 -0.0848616 -0.123589 0.029441 -0.0445696 0.0181158 0.112116 0.0103228 0.0444441
25 0.222711 -0.0581059 0.057305 -0.209169 0.110621 -0.111021 -0.182849 0.0639194 -0.15141 -0.191651 -0.288645 -0.162658 0.0339099 0.0336797 -0.0439734 -0.108331 -0.053847 0.104362 0.154348 -0.177504 0.0156375 -0.0198535 -0.132965 -0.149035 -0.0753627 0.136693 0.0649723 -0.0427659 -0.0497759 0.0276578 0.160641 -0.275814 0.11801 0.142959 -0.0715661 0.0973822 0.0904001 -0.0778427 0.0229256 -0.0438206 0.156718 -0.273858 0.104733 -0.108664 0.0795442 -0.12108 -0.0783558 0.0669359 -0.117944 -0.0583723 -0.0752527 0.240659 0.278974 -0.0189896 -0.011263 0.133229 -0.0233516 -0.0721284 -0.0289166 -0.1046 -0.0533857 0.0940556 -0.0505267 0.0661048 0.0636509 0.223333 0.0720973 -0.0922459 -0.2361 -0.0644316 0.0552329 -0.124407 -0.00535692 -0.192965 -0.0245644 -0.13053 0.0796428 0.0419809 -0.276203 -0.0788209 -0.187465 -0.0849485 -0.0745296 -0.189012 0.150293 -0.2429 -0.133489 -0.118923 0.0169693 -0.0139755 0.204271 0.0503446 0.288648 0.056969 0.0889 -0.0352039 0.0457836 0.198919 0.0931129 0.0580678 -0.0208224 -0.0923306 0.0237105 0.299279 -0.190044 0.0952847 0.0154813 -0.123355 0.0339216 -0.0895483 -0.0487678 -0.0759281 0.127399 0.0686384 -0.107963 0.198783 -0.0375588 0.0277228 -0.0145335 -0.234832 -0.0578387 -0.0220411 0.0339021 -0.00192791 0.133814 0.0298363 0.00537741 0.0749578
24 0.255885 -0.142284 0.066022 -0.270119 0.0999233 -0.106995 -0.174686 0.0779939 -0.139958 -0.179585 -0.256068 -0.204585 0.053112 0.0448647 -0.0546242 -0.0934098 -0.052494 0.0467921 0.170899 -0.243057 0.0533108 -0.0500112 -0.135195 -0.155417 -0.0986372 0.14495 0.109555 -0.0435931 -0.0407926 0.0613998 0.1131 -0.294162 0.127445 0.143318 -0.0923328 0.0727218 0.0981251 -0.14611 0.0550673 -0.0283847 0.129011 -0.335939 0.0971725 -0.0806646 0.0812084 -0.140631 -0.104291 0.0688644 -0.14009 -0.0750702 -0.130882 0.263154 0.25893 -0.0481335 -0.0437935 0.0673954 -0.042856 -0.0655901 -0.0355497 -0.136105 -0.014609 0.0965867 -0.0297538 0.0851488 0.100473 0.275789 0.0803059 -0.0803809 -0.216554 -0.0923854 0.0182512 -0.146205 -0.011146 -0.23037 -0.0235003 -0.172997 0.0753378 0.0220585 -0.295765 -0.0301024 -0.243723 -0.0604643 -0.0463711 -0.221884 0.162876 -0.284446 -0.131091 -0.173671 0.0251307 0.0049581 0.213532 0.0595536 0.3385 0.0729001 0.101682 -0.0391099 -0.0144258 0.2404 0.133262 0.0980984 0.0297947 -0.130255 0.0655065 0.344846 -0.251401 0.0750815 0.0177469 -0.161693 0.0787205 -0.0600888 -0.063618 -0.0794347 0.118619 0.0684997 -0.0525199 0.187247 -0.0482396 -0.00883086 -0.0403479 -0.233692 -0.0969415 -0.0239672 0.0181905 -0.0257732 0.186623 0.00572376 -0.00817301 0.0987302
26 0.126813 0.0961259 0.0489945 -0.060602 0.141145 -0.111386 -0.229942 -0.00937015 -0.145093 -0.255131 -0.288327 -0.0112867 -0.0661908 0.0492796 -0.00493051 -0.0728473 -0.137009 0.219676 0.0429705 0.0226848 -0.0543092 0.0527062 -0.120193 -0.120223 -0.102088 0.146514 0.042161 -0.0832795 -0.0607517 -0.00203926 0.164036 -0.1845 -0.0437125 0.0994019 -0.0799272 0.0321166 0.00161458 0.022447 0.0561052 -0.156066 0.158032 -0.150723 0.172347 -0.231368 0.0592981 -0.053221 -0.0224883 0.0848415 -0.00838227 -0.0631651 -0.0445299 0.296923 0.240234 -0.00261077 0.0744015 0.221129 0.00299873 -0.0859221 -0.13555 -0.0165804 -0.0984949 0.191898 -0.0938333 0.00747574 -0.0027278 0.108754 0.0490148 -0.0483243 -0.217572 0.0907724 0.021318 -0.054674 0.0105727 -0.152371 -0.114435 -0.0518848 0.122348 0.00974274 -0.184949 -0.146262 -0.062502 -0.163185 -0.188095 -0.215756 0.0673311 -0.227829 -0.173905 -0.0639106 0.0645454 -0.0300301 0.250545 0.0721657 0.166579 0.0568927 0.0162623 0.00547927 -0.0142625 0.233672 -0.0233607 0.00935356 -0.132953 -0.100054 0.0211918 0.204876 -0.0363482 0.0850812 0.040019 -0.00513704 -0.0365944 -0.211537 0.00156386 -0.0720205 0.217618 0.00108583 -0.0643319 0.219596 -0.10768 0.0611303 -0.00817793 -0.224703 -0.0955389 -0.171567 0.0224484 -0.0603648 -0.0469366 0.155046 0.0213168 0.0437768
