2405 16
0 0.00098142233775 0.0110826218813 -0.00853735841613 0.0146094995966 0.00226630272763 0.00670450457275 -0.00826686537909 -0.0126184778668 0.00098142233775 0.0110826218813 -0.00853735841613 0.0146094995966 0.00226630272763 0.00670450457275 -0.00826686537909 -0.0126184778668
1 -0.000880547131806 0.00650451145347 -0.00623772169571 0.00524221748021 0.00449181232058 0.00412060589832 -0.00587398030963 -0.00242661664854 -0.000880547131806 0.00650451145347 -0.00623772169571 0.00524221748021 0.00449181232058 0.00412060589832 -0.00587398030963 -0.00242661664854
2 5.91613025938e-06 0.000712034381503 -0.000863701555421 0.00117782703297 7.02799297602e-05 0.00041113423406 -0.000489378054833 -0.000441260849865 5.91613025938e-06 0.000712034381503 -0.000863701555421 0.00117782703297 7.02799297602e-05 0.00041113423406 -0.000489378054833 -0.000441260849865
3 -0.0166469335076 0.00225250805843 -0.0121301421271 -0.00075114711234 0.0949106635251 0.0143173153351 -0.0037960054813 -0.0891930943343 -0.0166469335076 0.00225250805843 -0.0121301421271 -0.00075114711234 0.0949106635251 0.0143173153351 -0.0037960054813 -0.0891930943343
4 0.00105264584837 0.0132755697492 -0.0082702985747 0.0164928961544 -0.00296989316762 0.00837705949202 -0.0105387185777 -0.00106308483974 0.00105264584837 0.0132755697492 -0.0082702985747 0.0164928961544 -0.00296989316762 0.00837705949202 -0.0105387185777 -0.00106308483974
5 0.0409464242149 0.0917938525204 -0.0466515411036 0.187606491516 -0.0259989992408 0.089299678428 -0.0965303804689 -0.00806614767637 0.0409464242149 0.0917938525204 -0.0466515411036 0.187606491516 -0.0259989992408 0.089299678428 -0.0965303804689 -0.00806614767637
6 -0.00216462428535 0.00221164302775 -0.00137066035858 0.000807728398579 0.00226406449508 -0.00179917394749 0.00279682872993 -0.0534797407145 -0.00216462428535 0.00221164302775 -0.00137066035858 0.000807728398579 0.00226406449508 -0.00179917394749 0.00279682872993 -0.0534797407145
7 0.00369487751992 -0.00243626160682 0.00613584059773 -0.00500197724274 -0.0020099259534 0.0108212343594 -0.0108492552695 -0.00101268146817 0.00369487751992 -0.00243626160682 0.00613584059773 -0.00500197724274 -0.0020099259534 0.0108212343594 -0.0108492552695 -0.00101268146817
8 0.0938358993765 -0.0694330210851 0.0304147582759 -0.140596907311 -0.0199726812614 0.138633150163 -0.157299522695 -0.0161523404791 0.0938358993765 -0.0694330210851 0.0304147582759 -0.140596907311 -0.0199726812614 0.138633150163 -0.157299522695 -0.0161523404791
9 -0.0337134769615 0.0274158841636 0.0801489496015 0.0455069428907 -0.0196324508426 0.102098486701 -0.122994191587 -0.0200678273801 -0.0337134769615 0.0274158841636 0.0801489496015 0.0455069428907 -0.0196324508426 0.102098486701 -0.122994191587 -0.0200678273801
10 0.0057068604636 0.00606606635765 0.00707643282677 0.00605163486415 -8.2353756085e-05 0.00829693064731 -0.0136364619857 -0.0174488643553 0.0057068604636 0.00606606635765 0.00707643282677 0.00605163486415 -8.23537560851e-05 0.00829693064731 -0.0136364619857 -0.0174488643553
11 0.000463220641919 0.000592128550189 0.000528536489929 0.000407530057196 -0.0014024254559 3.5081725155e-05 -0.000227637990906 -0.00422724894092 0.000463220641919 0.000592128550189 0.000528536489929 0.000407530057196 -0.0014024254559 3.5081725155e-05 -0.000227637990906 -0.00422724894092
12 0.00102180495848 0.000220620022668 0.000821329041445 9.59193732051e-05 -0.000105873057673 0.000963601871386 -0.00113970010646 -0.000581833581695 0.00102180495848 0.000220620022668 0.000821329041445 9.59193732051e-05 -0.000105873057673 0.000963601871386 -0.00113970010646 -0.000581833581695
13 -0.00177696040126 0.0052385148345 0.00914868976953 0.00575320594116 -0.00157418641199 0.00841761824469 -0.00936693326785 -0.00198633009369 -0.00177696040126 0.0052385148345 0.00914868976953 0.00575320594116 -0.00157418641199 0.00841761824469 -0.00936693326785 -0.00198633009369
14 0.0115879239274 0.0221597219622 0.00702820643446 0.00948495092611 -0.0135637106814 0.00657276399587 -0.106296695121 -0.00682990346105 0.0115879239274 0.0221597219622 0.00702820643446 0.00948495092611 -0.0135637106814 0.00657276399587 -0.106296695121 -0.00682990346105
15 -0.000438660793014 0.0108450462822 0.0118213213302 0.00905728722844 -0.00327676567947 0.00619093729329 -0.0218236048183 -0.00266423775814 -0.000438660793014 0.0108450462822 0.0118213213302 0.00905728722844 -0.00327676567947 0.00619093729329 -0.0218236048183 -0.00266423775814
16 0.00616982946727 0.00766672272316 0.00499164805299 0.0066754562505 -0.00220252599083 0.00505655641581 -0.01010967115 -0.0016317913838 0.00616982946727 0.00766672272316 0.00499164805299 0.0066754562505 -0.00220252599083 0.00505655641581 -0.01010967115 -0.0016317913838
17 -0.00130871610737 0.00416951388289 0.00577574655301 0.00358455196257 -0.00176358472902 0.00473817840925 -0.00624088418182 -0.00105445429523 -0.00130871610737 0.00416951388289 0.00577574655301 0.00358455196257 -0.00176358472902 0.00473817840925 -0.00624088418182 -0.00105445429523
18 0.000339890990212 0.00586210630533 0.00475284964891 0.00382966641632 0.00525857711802 0.00438449326121 -0.00884937698187 -0.0142650534492 0.000339890990212 0.00586210630533 0.00475284964891 0.00382966641632 0.00525857711802 0.00438449326121 -0.00884937698187 -0.0142650534492
19 0.00432274142584 0.00707224972499 0.00592071606476 0.00539389198579 -0.00241730111878 0.00604917657831 -0.012278666209 -0.0037076539405 0.00432274142584 0.00707224972499 0.00592071606476 0.00539389198579 -0.00241730111878 0.00604917657831 -0.012278666209 -0.0037076539405
20 0.00261665400529 0.00685293454862 0.00521408128047 0.00522231311899 -0.00251727645015 0.00386260234103 -0.00958611185927 -0.00627063957276 0.00261665400529 0.00685293454862 0.00521408128047 0.00522231311899 -0.00251727645015 0.00386260234103 -0.00958611185927 -0.00627063957276
21 0.00275413671795 0.00574283937577 0.00664892228244 0.00465053547808 -0.00180991559857 0.00633431886117 -0.0120172191368 -0.00273809789719 0.00275413671795 0.00574283937577 0.00664892228244 0.00465053547808 -0.00180991559857 0.00633431886117 -0.0120172191368 -0.00273809789719
22 -0.00940943639081 0.00291427259808 -0.00576704044668 -0.00145319301056 0.0626351604586 0.00893905040317 -0.00180446681419 -0.0437434194345 -0.00940943639081 0.00291427259808 -0.00576704044668 -0.00145319301056 0.0626351604586 0.00893905040317 -0.00180446681419 -0.0437434194345
23 -0.00478127565206 0.00167275663039 -0.00192696849564 -0.00143488351512 0.0333769618219 0.00444598241656 -0.00381139026506 -0.016426380317 -0.00478127565206 0.00167275663039 -0.00192696849564 -0.00143488351512 0.0333769618219 0.00444598241656 -0.00381139026506 -0.016426380317
24 0.00122970926322 -0.00255373670646 -0.00275772130874 0.000655750313873 0.0221367785307 0.00489518443699 0.00185667423146 -0.158017017155 0.00122970926322 -0.00255373670646 -0.00275772130874 0.000655750313873 0.0221367785307 0.00489518443699 0.00185667423146 -0.158017017155
25 -0.0133192367941 0.00233742865744 -0.00742467906159 -0.00431797359025 0.0950047941874 0.0157318715991 -0.00490539209065 -0.0468510443133 -0.0133192367941 0.00233742865744 -0.00742467906159 -0.00431797359025 0.0950047941874 0.0157318715991 -0.00490539209065 -0.0468510443133
26 -0.0148715162635 0.00282287102351 -0.00991817817125 -0.00365522720781 0.124112963022 0.020595758808 -0.00498395536892 -0.106337598187 -0.0148715162635 0.00282287102351 -0.00991817817125 -0.00365522720781 0.124112963022 0.020595758808 -0.00498395536892 -0.106337598187
27 -0.0113379070983 0.00177455854219 -0.00578933559831 -0.00422983085822 0.0807190827513 0.0139132085199 -0.00514326559554 -0.0334530879894 -0.0113379070983 0.00177455854219 -0.00578933559831 -0.00422983085822 0.0807190827513 0.0139132085199 -0.00514326559554 -0.0334530879894
28 -0.0096182939352 0.00514644803361 -0.00784783788762 -0.00192288544883 0.128861739228 0.0238740510038 -0.0082632179216 -0.0963935793683 -0.0096182939352 0.00514644803361 -0.00784783788762 -0.00192288544883 0.128861739228 0.0238740510038 -0.0082632179216 -0.0963935793683
29 -0.00645765821604 0.00198740187894 -0.0035680466294 -0.00192948503651 0.0406942134789 0.00566656791337 -0.000893336913886 -0.0255997757737 -0.00645765821604 0.00198740187894 -0.0035680466294 -0.00192948503651 0.0406942134789 0.00566656791337 -0.000893336913886 -0.0255997757737
30 -0.0115863978661 0.00296152867892 -0.00663704919404 -0.00262489303358 0.0831392294054 0.0157511451952 -0.00678086757962 -0.0267017836618 -0.0115863978661 0.00296152867892 -0.00663704919404 -0.00262489303358 0.0831392294054 0.0157511451952 -0.00678086757962 -0.0267017836618
31 -0.00163394619927 0.000517629936785 -0.000883826999855 -0.00012550602235 0.00957986534057 0.00140148352905 -0.000396714257783 -0.003174424396 -0.00163394619927 0.000517629936785 -0.000883826999855 -0.00012550602235 0.00957986534057 0.00140148352905 -0.000396714257783 -0.003174424396
32 -0.00288234658062 0.00191145146762 -0.00090266800416 -0.00196723188924 -0.00139892599009 -0.00585341215012 0.00886532689896 -0.155205391704 -0.00288234658062 0.00191145146762 -0.00090266800416 -0.00196723188924 -0.00139892599009 -0.00585341215012 0.00886532689896 -0.155205391704
33 -0.00846513803138 0.00553122068491 -0.00402082971777 0.000614259457304 0.0240948640494 -0.000366816369357 0.00579209272451 -0.13629050194 -0.00846513803138 0.00553122068491 -0.00402082971777 0.000614259457304 0.0240948640494 -0.000366816369357 0.00579209272451 -0.13629050194
34 -0.0117431971635 0.00382026665288 -0.00643571864874 -0.00321569381105 0.0644263449285 0.00864423162712 -0.000987607737061 -0.0489882412033 -0.0117431971635 0.00382026665288 -0.00643571864874 -0.00321569381105 0.0644263449285 0.00864423162712 -0.000987607737061 -0.0489882412033
35 -0.0101997338645 0.00109132826244 -0.00556039401075 -0.00398209819598 0.0745173260022 0.0134313105535 -0.00509745324349 -0.0208633144619 -0.0101997338645 0.00109132826244 -0.00556039401075 -0.00398209819598 0.0745173260022 0.0134313105535 -0.00509745324349 -0.0208633144619
36 -0.00965308558549 0.00123105595969 -0.00585974219196 -0.00551889680232 0.0805974701831 0.0141647138931 -0.00471195064229 -0.0495968286494 -0.00965308558549 0.00123105595969 -0.00585974219196 -0.00551889680232 0.0805974701831 0.0141647138931 -0.00471195064229 -0.0495968286494
37 -0.0022985863739 0.00261694193245 0.00477966031354 0.0029248655341 -0.000853815347183 0.00183890203271 -0.0094920673041 -0.00113271956012 -0.0022985863739 0.00261694193245 0.00477966031354 0.0029248655341 -0.000853815347183 0.00183890203271 -0.0094920673041 -0.00113271956012
38 -0.000140137328795 0.000152227953765 0.000264630089647 0.000154179852951 -4.33415374296e-05 8.240645501e-05 -0.000366642218551 -3.14117336128e-05 -0.000140137328795 0.000152227953765 0.000264630089647 0.000154179852951 -4.33415374296e-05 8.240645501e-05 -0.000366642218551 -3.14117336128e-05
39 -0.00206937520418 0.00165097695347 0.00445546625174 0.0024251701948 -0.000989688969771 0.00445795758637 -0.0049271211182 -0.000572053974082 -0.00206937520418 0.00165097695347 0.00445546625174 0.0024251701948 -0.000989688969771 0.00445795758637 -0.0049271211182 -0.000572053974082
40 -0.00204844610481 0.00401243655991 0.00159882201906 0.00238062861109 -0.000586495374448 0.00601743191102 -0.00620422702443 -0.000893469678504 -0.00204844610481 0.00401243655991 0.00159882201906 0.00238062861109 -0.000586495374448 0.00601743191102 -0.00620422702443 -0.000893469678504
41 -0.000679013245678 0.00205110304329 0.00298080350146 0.00181036799653 -0.000674690396508 0.00192928097465 -0.002547356809 -0.000234992100382 -0.000679013245678 0.00205110304329 0.00298080350146 0.00181036799653 -0.000674690396508 0.00192928097465 -0.002547356809 -0.000234992100382
42 -0.00044245052016 0.00198302201354 0.00258906171258 0.00170845658263 -0.000556308066248 0.00163657027215 -0.00222260326976 -0.000242741552348 -0.00044245052016 0.00198302201354 0.00258906171258 0.00170845658263 -0.000556308066248 0.00163657027215 -0.00222260326976 -0.000242741552348
43 -0.00214070640719 0.00347604039253 0.00779487656025 0.00388512819233 -0.00151434419167 0.00707496396078 -0.00778704350592 -0.000864451709789 -0.00214070640719 0.00347604039253 0.00779487656025 0.00388512819233 -0.00151434419167 0.00707496396078 -0.00778704350592 -0.000864451709789
44 0.000107606219328 0.00172612927327 0.000370901468028 0.00179041043876 -0.000388488832761 0.00147345505061 -0.00153552961182 -0.000591600550558 0.000107606219328 0.00172612927327 0.000370901468028 0.00179041043876 -0.000388488832761 0.00147345505061 -0.00153552961182 -0.000591600550558
45 0.00016886957692 0.00102917950477 0.00126221748235 0.000928706252717 -0.000183996311384 0.00103900849373 -0.00118930227433 -0.00058487644474 0.00016886957692 0.00102917950477 0.00126221748235 0.000928706252717 -0.000183996311384 0.00103900849373 -0.00118930227433 -0.00058487644474
46 -0.000543280176425 0.00222032159415 0.00341089217393 0.00198447086278 -0.000766030488016 0.00224228584091 -0.00289011521415 -0.000271829156841 -0.000543280176425 0.00222032159415 0.00341089217393 0.00198447086278 -0.000766030488016 0.00224228584091 -0.00289011521415 -0.000271829156841
47 -0.000537809376807 0.00232270921841 0.0031272861722 0.00272610917071 -0.000634780866484 0.00257573218281 -0.00321827907312 -0.000324612180646 -0.000537809376807 0.00232270921841 0.0031272861722 0.00272610917071 -0.000634780866484 0.00257573218281 -0.00321827907312 -0.000324612180646
48 -0.000983063346639 0.0025158039857 0.00384382268343 0.00227188726843 -0.000992166522885 0.00271766884702 -0.00334376985434 -0.000280087807818 -0.000983063346639 0.0025158039857 0.00384382268343 0.00227188726843 -0.000992166522885 0.00271766884702 -0.00334376985434 -0.000280087807818
49 -0.00363226490585 0.00448668801107 0.00991340046588 0.00510116316286 -0.00293601612351 0.00946959638061 -0.0112822529645 -0.00102623139893 -0.00363226490585 0.00448668801107 0.00991340046588 0.00510116316286 -0.00293601612351 0.00946959638061 -0.0112822529645 -0.00102623139893
50 -0.00024187421209 0.000772020332229 0.00115034798447 0.000731696941611 -0.000210538084576 0.000867157706054 -0.000842907966648 -0.000117782613773 -0.00024187421209 0.000772020332229 0.00115034798447 0.000731696941611 -0.000210538084576 0.000867157706054 -0.000842907966648 -0.000117782613773
51 -0.000125546548841 0.000590891110827 0.000761802161317 0.000546430389198 -0.000140751677787 0.000576186826464 -0.00056369420665 -9.50699834383e-05 -0.000125546548841 0.000590891110827 0.000761802161317 0.000546430389197 -0.000140751677788 0.000576186826464 -0.00056369420665 -9.50699834383e-05
52 0.00749088757872 -0.00382546005314 0.00376123783717 -0.0040725259507 0.000443684623032 0.0109237860877 -0.00973922500578 -0.00167211788838 0.00749088757872 -0.00382546005314 0.00376123783717 -0.0040725259507 0.000443684623032 0.0109237860877 -0.00973922500578 -0.00167211788838
53 0.00332744456984 -0.00111356917674 0.000292335898104 0.000933946173764 0.00111006796368 0.00317526232428 -0.00228362356906 -0.000982170860325 0.00332744456984 -0.00111356917674 0.000292335898104 0.000933946173764 0.00111006796368 0.00317526232428 -0.00228362356906 -0.000982170860325
54 0.00170901825124 0.000477292539143 0.00134248526609 0.00110661163447 0.000891940268604 0.00224668795903 -0.00184945415715 -0.000875932163553 0.00170901825124 0.000477292539143 0.00134248526609 0.00110661163447 0.000891940268604 0.00224668795903 -0.00184945415715 -0.000875932163553
55 0.00885095365727 0.00125548845516 0.00682957807628 0.00486924266347 0.00367079024907 0.0115533589277 -0.00905022412485 -0.0199300320637 0.00885095365727 0.00125548845516 0.00682957807628 0.00486924266347 0.00367079024907 0.0115533589277 -0.00905022412485 -0.0199300320637
56 -0.000914514985371 0.00150530703897 0.0051622114477 0.00255883042929 -0.000670009247493 0.00576161280746 -0.00559466035434 -0.00119479422817 -0.000914514985371 0.00150530703897 0.0051622114477 0.00255883042929 -0.000670009247493 0.00576161280746 -0.00559466035434 -0.00119479422817
57 0.0159745703286 -0.00531284881205 0.00575523382785 -0.0075063231255 0.00251001562252 0.0165725176145 -0.0144661848319 -0.00310717888729 0.0159745703286 -0.00531284881205 0.00575523382785 -0.0075063231255 0.00251001562252 0.0165725176145 -0.0144661848319 -0.00310717888729
58 0.00552522253775 -6.92148284394e-05 0.00252262256665 0.00144233249438 0.00437492763383 0.00628168735003 -0.00495945223954 -0.0015651276092 0.00552522253775 -6.92148284394e-05 0.00252262256665 0.00144233249438 0.00437492763383 0.00628168735003 -0.00495945223954 -0.0015651276092
59 -0.014197491087 -0.000542264341167 0.0240097669919 0.00630088401361 -0.000506169958584 0.0158818087194 -0.0213954882931 -0.00294725012521 -0.014197491087 -0.000542264341167 0.0240097669919 0.00630088401361 -0.000506169958584 0.0158818087194 -0.0213954882931 -0.00294725012521
60 -0.000958318131775 -0.00876100030466 -0.0187100409416 0.0193156792147 -0.00313858884503 0.014907849309 -0.0142497585708 -0.00137530036932 -0.000958318131775 -0.00876100030466 -0.0187100409416 0.0193156792147 -0.00313858884503 0.014907849309 -0.0142497585708 -0.00137530036932
61 -0.000252124090157 0.00205974801729 0.00631810006187 0.00369079598146 0.00075704431872 0.00750982200611 -0.00680274835541 -0.00173363800487 -0.000252124090158 0.00205974801729 0.00631810006187 0.00369079598146 0.00075704431872 0.00750982200611 -0.00680274835541 -0.00173363800487
62 0.00110247124865 0.00586222817287 0.0042925501371 0.0127833264553 0.00862856535544 0.0124356357069 -0.00944134752683 -0.00475597913675 0.00110247124865 0.00586222817287 0.0042925501371 0.0127833264553 0.00862856535544 0.0124356357069 -0.00944134752683 -0.00475597913675
63 0.00467928539702 0.00585335293781 -0.000765676179482 0.0114458012639 0.000375585002717 0.00713065626199 -0.00587998491085 -0.00126082366252 0.00467928539702 0.00585335293781 -0.000765676179482 0.0114458012639 0.000375585002717 0.00713065626199 -0.00587998491085 -0.00126082366252
64 0.00284015715932 0.00103117385815 0.00169278513482 0.00228362345767 0.00169944535598 0.00362054585009 -0.00253814952559 -0.00108351552728 0.00284015715932 0.00103117385815 0.00169278513482 0.00228362345767 0.00169944535598 0.00362054585009 -0.00253814952559 -0.00108351552728
65 0.00515113859832 -0.00015890334762 0.00169965189098 0.00317017450538 0.00206915743137 0.00599013559212 -0.00433607685446 -0.00150578823439 0.00515113859832 -0.00015890334762 0.00169965189098 0.00317017450538 0.00206915743137 0.00599013559212 -0.00433607685446 -0.00150578823439
66 0.00260174754152 0.00262834299847 0.00631135826353 0.00496873491379 0.0114129776813 0.0110583179986 -0.00862262246873 -0.00516738408334 0.00260174754152 0.00262834299847 0.00631135826353 0.00496873491379 0.0114129776813 0.0110583179986 -0.00862262246873 -0.00516738408334
67 0.00518044924801 0.0058651999804 -0.000575053093713 0.0113355038972 0.000550936172734 0.00739340664491 -0.00605846534999 -0.00133227775208 0.00518044924801 0.0058651999804 -0.000575053093713 0.0113355038972 0.000550936172734 0.00739340664491 -0.00605846534999 -0.00133227775208
68 0.00174127268816 0.00209529636745 0.00552174663315 0.00419122028379 0.000923012158446 0.00769487028464 -0.00683204373363 -0.0016482545285 0.00174127268816 0.00209529636745 0.00552174663315 0.00419122028379 0.000923012158446 0.00769487028464 -0.00683204373363 -0.0016482545285
69 0.00302542346762 -8.14764381353e-05 0.00145572508498 0.000714250404717 -0.000474635808247 0.0024147641144 -0.00299103580457 -0.00767353315306 0.00302542346762 -8.14764381352e-05 0.00145572508498 0.000714250404717 -0.000474635808247 0.0024147641144 -0.00299103580457 -0.00767353315306
70 0.00807800867036 0.00595305954846 -0.000822280130063 0.0104237385348 0.00987601219368 0.00865035370087 -0.0127791931636 -0.0049306266317 0.00807800867036 0.00595305954846 -0.000822280130063 0.0104237385348 0.00987601219368 0.00865035370087 -0.0127791931636 -0.0049306266317
71 -0.000699022814559 -0.000376789468965 0.00275311187963 0.000613307140049 -0.000186348599833 -0.00137721524468 -0.00720499048531 -0.000740211882403 -0.000699022814559 -0.000376789468965 0.00275311187963 0.000613307140049 -0.000186348599833 -0.00137721524468 -0.00720499048531 -0.000740211882403
72 0.00559270269306 -2.70435155862e-05 0.00118987886434 0.0015054993187 0.014016472473 0.00563090504139 -0.00403364559093 -0.00334649674451 0.00559270269306 -2.70435155862e-05 0.00118987886434 0.0015054993187 0.014016472473 0.00563090504139 -0.00403364559093 -0.00334649674451
73 0.00571500339454 9.74477806841e-06 0.00119432733526 0.00178292740029 0.00876982347507 0.00477297548488 -0.00352726916014 -0.00220939505422 0.00571500339454 9.74477806842e-06 0.00119432733526 0.00178292740029 0.00876982347507 0.00477297548488 -0.00352726916014 -0.00220939505422
74 0.00432969865983 -0.00133222176689 0.000164874086154 0.000559729089122 0.0318770533789 0.00944546840306 -0.00694973046385 -0.00683229068494 0.00432969865983 -0.00133222176689 0.000164874086154 0.000559729089122 0.0318770533789 0.00944546840306 -0.00694973046385 -0.00683229068494
75 0.0126926251291 0.00196811803829 0.0161383321998 -0.00217541745703 -0.0111920135601 0.0351419185234 -0.0471513405877 -0.00741465144146 0.0126926251291 0.00196811803829 0.0161383321998 -0.00217541745703 -0.0111920135601 0.0351419185234 -0.0471513405877 -0.00741465144146
76 0.00671492855453 -0.000877601699863 0.00381640009575 0.000635761960236 -0.0371360457166 -0.0084581725926 0.00690298140091 -0.121189200327 0.00671492855453 -0.000877601699863 0.00381640009575 0.000635761960236 -0.0371360457166 -0.0084581725926 0.00690298140091 -0.121189200327
77 0.00189106269352 0.00411318123821 0.00246981676466 0.001679405188 -0.0275450090128 -0.00751408110366 0.00774310049775 -0.134987407386 0.00189106269352 0.00411318123821 0.00246981676466 0.001679405188 -0.0275450090128 -0.00751408110366 0.00774310049775 -0.134987407386
78 0.00189479043879 0.0010416533382 0.00145550938745 0.00151242712308 0.00206280522288 0.000546768159144 -0.00395506822849 -0.00123752165242 0.00189479043879 0.0010416533382 0.00145550938745 0.00151242712308 0.00206280522288 0.000546768159144 -0.00395506822849 -0.00123752165242
79 -0.000100233147594 -4.01475035808e-05 9.83106278656e-05 -0.00016132199691 0.000117872556108 -0.0013000988746 -0.00125680067512 -2.1324771544e-05 -0.000100233147594 -4.01475035808e-05 9.83106278656e-05 -0.00016132199691 0.000117872556108 -0.0013000988746 -0.00125680067512 -2.1324771544e-05
80 -0.002040810277 -0.000555386094757 0.00216636890591 -8.39240672378e-05 0.000134692329063 -0.00379444550196 -0.00550686323835 -0.00025651036018 -0.002040810277 -0.000555386094757 0.00216636890591 -8.39240672378e-05 0.000134692329063 -0.00379444550196 -0.00550686323835 -0.00025651036018
81 -0.000100877812411 -5.6479935345e-05 -4.65271256696e-05 -0.000163438958843 0.000191349979823 -0.00178677674307 -0.00156331551791 -2.38193863432e-05 -0.000100877812411 -5.6479935345e-05 -4.65271256696e-05 -0.000163438958843 0.000191349979823 -0.00178677674307 -0.00156331551791 -2.38193863432e-05
82 -0.000249009036264 -4.17071649595e-05 1.55668615643e-05 -8.90980189125e-05 0.000287649904174 -0.0024207808848 -0.00222249119833 -3.73566599721e-05 -0.000249009036264 -4.17071649595e-05 1.55668615643e-05 -8.90980189125e-05 0.000287649904174 -0.0024207808848 -0.00222249119833 -3.73566599721e-05
83 -0.000393621060952 -0.000133269815607 0.000338628505256 -0.000153339232406 0.00014474827743 -0.00172043290932 -0.00175643253704 -3.44623605107e-05 -0.000393621060952 -0.000133269815607 0.000338628505256 -0.000153339232406 0.00014474827743 -0.00172043290932 -0.00175643253704 -3.44623605107e-05
84 0.00418915621542 0.000399380424293 0.00310437944517 -0.000664862175876 -0.042429691889 -0.0117610471549 0.0098712379272 -0.105704845871 0.00418915621542 0.000399380424293 0.00310437944517 -0.000664862175876 -0.042429691889 -0.0117610471549 0.0098712379272 -0.105704845871
85 0.00177685470673 0.0113062547569 0.00304902305915 0.0168057651807 -0.00399179151439 0.0115419991082 -0.0116888009259 -0.0103928395619 0.00177685470673 0.0113062547569 0.00304902305915 0.0168057651807 -0.00399179151439 0.0115419991082 -0.0116888009259 -0.0103928395619
86 -0.000790423972712 0.00236036433247 0.00218238959203 0.00240316887633 -0.000862565954357 0.00272220715245 -0.00330157575257 -0.000634039091706 -0.000790423972712 0.00236036433247 0.00218238959203 0.00240316887633 -0.000862565954357 0.00272220715245 -0.00330157575257 -0.000634039091706
87 -0.000486400415256 0.00295727090513 0.0027784507996 0.00292557251329 -0.000886648114738 0.00325499638821 -0.00428915774433 -0.00076676341207 -0.000486400415256 0.00295727090513 0.0027784507996 0.00292557251329 -0.000886648114738 0.00325499638821 -0.00428915774433 -0.00076676341207
88 0.00939739232641 -0.00017889383534 0.000404333174624 -0.00101966931543 -0.00143535580943 0.0112097728175 -0.00999114644542 -0.00131556203535 0.00939739232641 -0.00017889383534 0.000404333174624 -0.00101966931543 -0.00143535580943 0.0112097728175 -0.00999114644542 -0.00131556203535
89 0.000127534660312 0.0013573587135 0.000812442893896 0.0014761085206 -0.000124142503858 0.000333525989744 -0.0020396282433 -0.000539212447957 0.000127534660312 0.0013573587135 0.000812442893896 0.0014761085206 -0.000124142503858 0.000333525989744 -0.0020396282433 -0.000539212447957
90 0.00133691689441 0.00408402305086 0.0020508937184 0.00562923938566 0.00219574832958 0.00377175724561 -0.0052677751153 -0.0010699674404 0.00133691689441 0.00408402305086 0.0020508937184 0.00562923938566 0.00219574832958 0.00377175724561 -0.0052677751153 -0.0010699674404
91 -0.000159785627629 0.00160692493848 0.000794403617815 0.00162744343396 0.000585504062223 0.00120985309983 -0.00105475758151 -0.0046526357144 -0.000159785627629 0.00160692493848 0.000794403617815 0.00162744343396 0.000585504062223 0.00120985309983 -0.00105475758151 -0.0046526357144
92 0.000910876604513 0.0002507781074 0.000349635145114 0.00117481672977 0.00525823772043 0.00216281243528 -0.00132808451401 -0.00128202473329 0.000910876604513 0.0002507781074 0.000349635145114 0.00117481672977 0.00525823772043 0.00216281243528 -0.00132808451401 -0.00128202473329
93 0.0129341738198 0.0395074366728 -0.0184572884104 0.0593713848188 -0.0133870757495 0.0348783306745 -0.0318502804782 -0.00592339736203 0.0129341738198 0.0395074366728 -0.0184572884104 0.0593713848188 -0.0133870757495 0.0348783306745 -0.0318502804782 -0.00592339736203
94 -0.00188800829918 0.00309340077793 0.00498549428837 0.00425080403519 -0.00118141564997 0.00568437814531 -0.00588573790689 -0.00106083417896 -0.00188800829918 0.00309340077793 0.00498549428837 0.00425080403519 -0.00118141564997 0.00568437814531 -0.00588573790689 -0.00106083417896
95 0.000140835396854 0.0025174336686 0.00171984440167 0.00215130736932 -2.39837918951e-05 0.0016020218485 -0.00165966836818 -0.0104846209618 0.000140835396854 0.0025174336686 0.00171984440167 0.00215130736932 -2.39837918951e-05 0.0016020218485 -0.00165966836818 -0.0104846209618
96 0.0042972391536 0.00729105021477 -0.00294199082716 0.0139285684508 0.000853943563272 0.00685042560558 -0.00583606436993 -0.000684447614799 0.0042972391536 0.00729105021477 -0.00294199082716 0.0139285684508 0.000853943563272 0.00685042560558 -0.00583606436993 -0.000684447614799
97 -0.000185361333242 0.00416350301063 0.00314115753516 0.0088874266828 -0.00218526827812 0.00809613075272 -0.00792509579116 -0.000987991531508 -0.000185361333242 0.00416350301063 0.00314115753516 0.0088874266828 -0.00218526827812 0.00809613075272 -0.00792509579116 -0.000987991531508
98 0.00899861586799 0.0113651689245 0.00163837231915 0.0359209071701 -0.0104562392747 0.033954516955 -0.0417074512236 -0.00353974766637 0.00899861586799 0.0113651689245 0.00163837231915 0.0359209071701 -0.0104562392747 0.033954516955 -0.0417074512236 -0.00353974766637
99 0.00983355701982 0.016756523573 -0.00791583380796 0.0360335767205 -0.00642075912723 0.0190873743136 -0.0165903362403 -0.00161297355451 0.00983355701982 0.016756523573 -0.00791583380796 0.0360335767205 -0.00642075912723 0.0190873743136 -0.0165903362403 -0.00161297355451
100 0.00254484377845 0.00211566881985 -0.00528702914829 0.0142890035232 0.000301725333828 0.00601020365952 -0.00803046580809 -0.000711408567881 0.00254484377845 0.00211566881985 -0.00528702914829 0.0142890035232 0.000301725333828 0.00601020365952 -0.00803046580809 -0.000711408567881
101 0.00746646947112 0.0157291018186 -0.00814825711521 0.0415838706554 -0.00766112617068 0.0244020211605 -0.0214320114225 -0.0022218191992 0.00746646947112 0.0157291018186 -0.00814825711521 0.0415838706554 -0.00766112617068 0.0244020211605 -0.0214320114225 -0.0022218191992
102 0.0016442615996 0.00235569471586 -0.000560505813752 0.00415185956371 -0.00136555083543 0.00320888113708 -0.00234489068745 -0.00846158125422 0.0016442615996 0.00235569471586 -0.000560505813752 0.00415185956371 -0.00136555083543 0.00320888113708 -0.00234489068745 -0.00846158125422
103 -0.0826103165229 -0.0148648187825 0.0678304667218 -0.00253437134935 -0.0110302741698 0.0242782831617 -0.0197699309478 -0.000847382741124 -0.0826103165229 -0.0148648187825 0.0678304667218 -0.00253437134935 -0.0110302741698 0.0242782831617 -0.0197699309478 -0.000847382741124
104 -0.0712941987793 -0.0124116993137 0.083570540691 0.00513269567476 -0.0188101888577 0.0513455178062 -0.0506155906495 -0.0030014708146 -0.0712941987793 -0.0124116993137 0.083570540691 0.00513269567476 -0.0188101888577 0.0513455178062 -0.0506155906495 -0.0030014708146
105 -0.0628974358672 -0.0173471619569 0.0567675040608 -0.0101872566599 -0.00920459512946 0.0240179780305 -0.0191635852982 -0.000974806610446 -0.0628974358672 -0.0173471619569 0.0567675040608 -0.0101872566599 -0.00920459512946 0.0240179780305 -0.0191635852982 -0.000974806610446
106 -0.00680398354431 0.00357617140162 0.0352892332051 0.0106754875053 -0.0159501703992 0.0462968761662 -0.0663195313906 -0.00564489888951 -0.00680398354431 0.00357617140162 0.0352892332051 0.0106754875053 -0.0159501703992 0.0462968761662 -0.0663195313906 -0.00564489888951
107 -0.00816173992342 -0.00243978441153 0.0247000144963 -0.000780165872689 -0.00785645013765 0.0262466499026 -0.0304313933504 -0.00228393263525 -0.00816173992342 -0.00243978441153 0.0247000144963 -0.000780165872689 -0.00785645013765 0.0262466499026 -0.0304313933504 -0.00228393263525
108 -0.00499795146121 0.013224622476 0.00805035140496 0.0158475960162 -0.0021737886682 0.0157751129068 -0.0266068474975 -0.0028247053923 -0.00499795146121 0.013224622476 0.00805035140496 0.0158475960162 -0.0021737886682 0.0157751129068 -0.0266068474975 -0.0028247053923
109 -0.0732806255843 -0.0122072685933 0.061629596232 -0.000809209225984 -0.00956318637876 0.0230160851633 -0.0190177348829 -0.00112047453025 -0.0732806255843 -0.0122072685933 0.061629596232 -0.000809209225984 -0.00956318637876 0.0230160851633 -0.0190177348829 -0.00112047453025
110 -0.0623766642588 -0.0150944016844 0.0602407187994 -0.00761758995739 -0.0105711750529 0.0298872057313 -0.0253475489636 -0.00161895186061 -0.0623766642588 -0.0150944016844 0.0602407187994 -0.00761758995739 -0.0105711750529 0.0298872057313 -0.0253475489636 -0.00161895186061
111 -0.0666726765525 -0.0127725404978 0.0506620504397 -0.00326436463748 -0.00735472230386 0.0153110371322 -0.0103091529308 -0.000371822723487 -0.0666726765525 -0.0127725404978 0.0506620504397 -0.00326436463748 -0.00735472230386 0.0153110371322 -0.0103091529308 -0.000371822723487
112 -0.0618018822615 -0.0130621743723 0.0502761056922 -0.00420299656658 -0.00778397987767 0.0171607257469 -0.012228970546 -0.000468824400995 -0.0618018822615 -0.0130621743723 0.0502761056922 -0.00420299656658 -0.00778397987767 0.0171607257469 -0.012228970546 -0.000468824400995
113 -0.0768520597304 -0.0133295460986 0.0665078919814 -0.00106384066933 -0.0109375386457 0.0254175028539 -0.0218573170601 -0.00126848001837 -0.0768520597304 -0.0133295460986 0.0665078919814 -0.00106384066933 -0.0109375386457 0.0254175028539 -0.0218573170601 -0.00126848001837
114 -0.0599713848027 -0.016622269531 0.0517420554995 -0.0105971524476 -0.00827801470862 0.0210450369417 -0.016297122159 -0.000805981051595 -0.0599713848027 -0.016622269531 0.0517420554995 -0.0105971524476 -0.00827801470862 0.0210450369417 -0.016297122159 -0.000805981051595
115 -0.0792500204978 -0.0213590907626 0.0722175454684 -0.0115217435139 -0.0117972624956 0.0293534508224 -0.0239828322083 -0.00118240680042 -0.0792500204978 -0.0213590907626 0.0722175454684 -0.0115217435139 -0.0117972624956 0.0293534508224 -0.0239828322083 -0.00118240680042
116 -0.060590094481 -0.011672976558 0.0480794156702 -0.00268763259456 -0.00733610981218 0.0158138685123 -0.0111726923294 -0.000426383502409 -0.060590094481 -0.011672976558 0.0480794156702 -0.00268763259456 -0.00733610981218 0.0158138685123 -0.0111726923294 -0.000426383502409
117 -0.0671258608304 -0.0130538268647 0.052963294605 -0.00309295777913 -0.00804924121358 0.0170703702509 -0.0119699313554 -0.000442605002939 -0.0671258608304 -0.0130538268647 0.052963294605 -0.00309295777913 -0.00804924121358 0.0170703702509 -0.0119699313554 -0.000442605002939
118 -0.0259225832687 -0.00349118460938 0.0223355353198 0.000273344902128 -0.00411409051848 0.00916110231113 -0.00784087466327 -0.000355036437319 -0.0259225832687 -0.00349118460938 0.0223355353198 0.000273344902128 -0.00411409051848 0.00916110231113 -0.00784087466327 -0.000355036437319
119 -0.00101835391108 0.0032119833746 0.00464772593733 0.00532872412921 -0.000744721834212 0.0060109043367 -0.00703611780593 -0.000909070907096 -0.00101835391108 0.0032119833746 0.00464772593733 0.00532872412921 -0.000744721834212 0.0060109043367 -0.00703611780593 -0.000909070907096
120 -0.000246753495886 0.00570065641993 0.000539213548546 0.0112406054516 -0.00138644231624 0.00916313135263 -0.00814292129276 -0.00532788117875 -0.000246753495886 0.00570065641993 0.000539213548546 0.0112406054516 -0.00138644231624 0.00916313135263 -0.00814292129276 -0.00532788117875
121 0.000934055594419 0.00201450898217 -0.000283490526893 0.00500317031576 -0.00058030192656 0.00202079625944 -0.00283098324886 -0.00133581769253 0.000934055594419 0.00201450898217 -0.000283490526893 0.00500317031576 -0.00058030192656 0.00202079625944 -0.00283098324886 -0.00133581769253
122 0.00667109066673 0.0070906457757 0.00437510936554 0.0135062588632 0.0110564811374 0.00808472789788 -0.0280696738952 -0.00344705224688 0.00667109066673 0.0070906457757 0.00437510936554 0.0135062588632 0.0110564811374 0.00808472789788 -0.0280696738952 -0.00344705224688
123 0.0134618395615 -0.00699893099601 0.00371252868561 -0.0111746030901 0.00232225138573 0.0120361835478 -0.0110094564726 -0.00674773033964 0.0134618395615 -0.00699893099601 0.00371252868561 -0.0111746030901 0.00232225138573 0.0120361835478 -0.0110094564726 -0.00674773033964
124 0.0305290793467 -0.00883853272198 0.00861386956931 -0.0156515453953 0.000319536498837 0.0210648368351 -0.0294396881427 -0.0347799914993 0.0305290793467 -0.00883853272198 0.00861386956931 -0.0156515453953 0.000319536498837 0.0210648368351 -0.0294396881427 -0.0347799914993
125 0.00466646240339 -0.00099933833208 0.00125250481768 -0.00121446035226 0.00137863739333 0.00347869288965 -0.00256555329138 -0.000844040708645 0.00466646240339 -0.00099933833208 0.00125250481768 -0.00121446035226 0.00137863739333 0.00347869288965 -0.00256555329138 -0.000844040708645
126 0.00865182192215 -0.00232395790758 0.0011303635524 -0.000195095127517 0.0369777052462 0.012784213518 -0.00850139991699 -0.0109192208871 0.00865182192215 -0.00232395790758 0.0011303635524 -0.000195095127517 0.0369777052462 0.012784213518 -0.00850139991699 -0.0109192208871
127 0.00418397025433 -0.00135560546759 -0.000739934934427 -0.00837798872649 -0.00246741968072 0.010841215676 -0.0134565335433 -0.00111291394335 0.00418397025433 -0.00135560546759 -0.000739934934427 -0.00837798872649 -0.00246741968072 0.010841215676 -0.0134565335433 -0.00111291394335
128 0.000946256669823 0.000407777425386 4.13281837928e-05 0.000577355181692 0.0014011341096 -6.64355754588e-05 -0.00126048720372 -0.000194346796249 0.000946256669823 0.000407777425386 4.13281837928e-05 0.000577355181692 0.0014011341096 -6.64355754588e-05 -0.00126048720372 -0.000194346796249
129 0.000405584072894 0.000213378148315 -0.00016869207484 0.000158594075875 0.00169431190484 -0.00373851526263 -0.00401540242792 -0.000216118486152 0.000405584072894 0.000213378148315 -0.00016869207484 0.000158594075875 0.00169431190484 -0.00373851526263 -0.00401540242792 -0.000216118486152
130 0.000999340853339 0.000700578278537 -0.000111373048355 0.000930148445093 0.00213214486221 0.000155317218496 -0.00148615645929 -0.000371794337478 0.000999340853339 0.000700578278537 -0.000111373048355 0.000930148445093 0.00213214486221 0.000155317218496 -0.00148615645929 -0.000371794337478
131 0.0014569454027 0.000156084923689 8.55921573185e-05 2.63123989561e-05 0.00190470198751 2.7815600152e-05 -0.00244445670797 -0.000437914354947 0.0014569454027 0.000156084923689 8.55921573185e-05 2.63123989561e-05 0.00190470198751 2.7815600152e-05 -0.00244445670797 -0.000437914354947
132 0.0013429345142 0.000135859226803 0.000185792915365 0.000139265599047 0.0015255565898 3.18956445913e-05 -0.00172283303147 -0.000250241159812 0.0013429345142 0.000135859226803 0.000185792915365 0.000139265599047 0.0015255565898 3.18956445913e-05 -0.00172283303147 -0.000250241159812
133 0.000845685572032 0.000840454294417 -0.000467229233343 0.000600830571413 0.00835280930533 0.000984753182768 -0.00249301053 -0.002951106984 0.000845685572032 0.000840454294417 -0.000467229233343 0.000600830571413 0.00835280930533 0.000984753182768 -0.00249301053 -0.002951106984
134 0.00116166173689 0.000696482329802 0.000306961361261 0.00104961647669 0.00181714694552 0.000224373368272 -0.00212279440179 -0.000269456149729 0.00116166173689 0.000696482329802 0.000306961361261 0.00104961647669 0.00181714694552 0.000224373368272 -0.00212279440179 -0.000269456149729
135 0.00207909188169 0.00066181607327 0.00106621272878 0.00142707071949 0.00101789145131 0.00190889878217 -0.00410807250509 -0.000644132525398 0.00207909188169 0.00066181607327 0.00106621272878 0.00142707071949 0.00101789145131 0.00190889878217 -0.00410807250509 -0.000644132525398
136 0.00149950486095 0.00102157759731 3.4843494154e-05 0.00154784800608 0.00227151444823 0.000319227153997 -0.00274630766924 -0.000460846067683 0.00149950486095 0.00102157759731 3.4843494154e-05 0.00154784800608 0.00227151444823 0.000319227153997 -0.00274630766924 -0.000460846067683
137 0.0019145725865 -9.40555100957e-05 0.000393336223612 -0.000234311298494 0.00156692828163 0.000433060883193 -0.00211968922661 -0.000330736647514 0.0019145725865 -9.40555100957e-05 0.000393336223612 -0.000234311298494 0.00156692828163 0.000433060883193 -0.00211968922661 -0.000330736647514
138 0.00136542045626 0.000432146738227 8.3374551957e-05 0.000606142013408 0.00200014867363 0.000549498781216 -0.00168997788706 -0.000448278865391 0.00136542045626 0.000432146738227 8.3374551957e-05 0.000606142013408 0.00200014867363 0.000549498781216 -0.00168997788706 -0.000448278865391
139 -0.0013378319728 -0.000623115191959 -0.000993001422052 1.56158504926e-05 0.00135962918371 -0.0117568035925 -0.0106351105426 -0.000189691231102 -0.0013378319728 -0.000623115191959 -0.000993001422052 1.56158504926e-05 0.00135962918371 -0.0117568035925 -0.0106351105426 -0.000189691231102
140 -0.000416072999918 -0.00014593747572 0.000252128936524 -3.85022129171e-05 9.86204097138e-05 -0.00105066974628 -0.000971844632561 -2.37932409271e-05 -0.000416072999918 -0.00014593747572 0.000252128936524 -3.85022129171e-05 9.86204097138e-05 -0.00105066974628 -0.000971844632561 -2.37932409271e-05
141 -0.000389509089064 -0.000100863434917 0.000255411175577 4.20162198785e-05 7.74249273976e-05 -0.00124579657608 -0.00118866902942 -0.000126219978252 -0.000389509089064 -0.000100863434917 0.000255411175577 4.20162198785e-05 7.74249273976e-05 -0.00124579657608 -0.00118866902942 -0.000126219978252
142 -0.000101826205338 -1.02581957755e-05 -0.000104934130607 -7.84660642318e-05 0.000264941669202 -0.00211072756084 -0.00189587295163 -2.87822008553e-05 -0.000101826205338 -1.02581957755e-05 -0.000104934130607 -7.84660642318e-05 0.000264941669202 -0.00211072756084 -0.00189587295163 -2.87822008553e-05
143 -0.000145953421691 -2.39569476736e-05 -8.69066082911e-05 -8.53223771601e-05 0.000281655996449 -0.00227232126662 -0.00202312862694 -3.31232470983e-05 -0.000145953421691 -2.39569476736e-05 -8.69066082911e-05 -8.53223771601e-05 0.000281655996449 -0.00227232126662 -0.00202312862694 -3.31232470983e-05
144 -0.0010733954807 0.000446214878084 -0.000330300420284 0.0013276059656 0.00186099283873 -0.0120818268919 -0.0132819962883 -0.000367576284309 -0.0010733954807 0.000446214878084 -0.000330300420284 0.0013276059656 0.00186099283873 -0.0120818268919 -0.0132819962883 -0.000367576284309
145 0.00406871976241 0.00136458337723 0.00622139028636 0.00303412356245 0.00193293052217 0.00913970014986 -0.0082517455955 -0.00193538223913 0.00406871976241 0.00136458337723 0.00622139028636 0.00303412356245 0.00193293052217 0.00913970014986 -0.0082517455955 -0.00193538223913
146 0.0358372348531 -0.00909869792963 0.0111079342483 -0.00596609995495 0.0194382771753 0.028892308985 -0.0227862554596 -0.0110893827703 0.0358372348531 -0.00909869792963 0.0111079342483 -0.00596609995495 0.0194382771753 0.028892308985 -0.0227862554596 -0.0110893827703
147 -0.000835528806441 0.00196467454581 0.0052037486956 0.00347331743885 -0.000160920547315 0.00605692347732 -0.00572994681982 -0.00130044505635 -0.000835528806441 0.00196467454581 0.0052037486956 0.00347331743885 -0.000160920547315 0.00605692347732 -0.00572994681982 -0.00130044505635
148 0.00966184407861 -0.00270562189218 0.00272860302722 -0.00296897620412 0.00226960635815 0.00699298774186 -0.00521922999023 -0.00087963241613 0.00966184407861 -0.00270562189218 0.00272860302722 -0.00296897620412 0.00226960635815 0.00699298774186 -0.00521922999023 -0.00087963241613
149 0.0154876027647 -0.00602648643978 0.00154692455889 -0.0137604689781 0.00395414262122 0.0170008205985 -0.0145665347412 -0.00411874799653 0.0154876027647 -0.00602648643978 0.00154692455889 -0.0137604689781 0.00395414262122 0.0170008205985 -0.0145665347412 -0.00411874799653
150 0.000787062526095 -0.000570980704345 -0.00162484172064 -0.00105976733279 0.0509121780061 0.0111615407647 -0.00535931039502 -0.0136814300431 0.000787062526095 -0.000570980704345 -0.00162484172064 -0.00105976733279 0.0509121780061 0.0111615407647 -0.00535931039502 -0.0136814300431
151 0.0106384144236 -0.00734588266838 -0.000560906943347 0.00271434501068 0.0607268970007 0.0199747290582 -0.0120311066958 -0.0239808195126 0.0106384144236 -0.00734588266838 -0.000560906943347 0.00271434501068 0.0607268970007 0.0199747290582 -0.0120311066958 -0.0239808195126
152 0.0169263616304 -0.00346359893673 0.00233966534129 0.000573805481302 0.0507558215979 0.0228273482866 -0.0149141827877 -0.0132274814414 0.0169263616304 -0.00346359893673 0.00233966534129 0.000573805481301 0.0507558215979 0.0228273482866 -0.0149141827877 -0.0132274814414
153 0.00445474537472 -0.00111372830193 0.000557117664921 0.000595243101125 0.0230060872718 0.00659288164156 -0.00349846260974 -0.00344992657051 0.00445474537472 -0.00111372830193 0.000557117664921 0.000595243101125 0.0230060872718 0.00659288164156 -0.00349846260974 -0.00344992657051
154 0.00455044701587 -0.00132843111268 -0.000711825726482 0.000160294121361 0.0476636964181 0.0119924627064 -0.00579143346716 -0.0111548935406 0.00455044701587 -0.00132843111268 -0.000711825726482 0.000160294121361 0.0476636964181 0.0119924627064 -0.00579143346716 -0.0111548935406
155 0.00167586427969 -0.000700541746155 0.000417625763201 -0.000379158069341 0.0217235240943 0.00603589497693 -0.00312254087863 -0.0035410066276 0.00167586427969 -0.000700541746155 0.000417625763201 -0.000379158069341 0.0217235240943 0.00603589497693 -0.00312254087863 -0.0035410066276
156 0.000416612482183 -6.15923723527e-05 -0.00101406814479 -3.80460562858e-05 0.0316247471637 0.00678379460799 -0.00279642681679 -0.00930460237693 0.000416612482183 -6.15923723527e-05 -0.00101406814479 -3.80460562858e-05 0.0316247471637 0.00678379460799 -0.00279642681679 -0.00930460237693
157 -0.00248083720971 0.00343414130385 0.00516043534704 0.00397291157579 0.0215609147874 0.00538404622894 -0.0171992301447 -0.00486547264438 -0.00248083720971 0.00343414130385 0.00516043534704 0.00397291157579 0.0215609147874 0.00538404622894 -0.0171992301447 -0.00486547264438
158 0.00666712160583 -8.64001963408e-05 0.00121372474241 0.00189644472472 0.0521938918076 0.0157552524961 -0.00804689896505 -0.0185924934707 0.00666712160583 -8.64001963407e-05 0.00121372474241 0.00189644472472 0.0521938918076 0.0157552524961 -0.00804689896505 -0.0185924934707
159 0.00221612675511 -0.00064679446759 -0.000522084025277 -0.000406356695305 0.0390742646041 0.00936097572045 -0.0042937673839 -0.00984544000226 0.00221612675511 -0.00064679446759 -0.000522084025277 -0.000406356695305 0.0390742646041 0.00936097572045 -0.0042937673839 -0.00984544000226
160 0.00156959447386 -0.000543016090618 -0.000397897034681 4.80654939631e-05 0.0189090685399 0.00424886063027 -0.00187568426805 -0.00489610536433 0.00156959447386 -0.000543016090618 -0.000397897034681 4.80654939631e-05 0.0189090685399 0.00424886063027 -0.00187568426805 -0.00489610536433
161 -0.00101403572162 -0.00308269898058 -0.0040535314209 -0.010241178523 0.0973909121355 0.0275169955641 -0.0161670278669 -0.0249712535708 -0.00101403572162 -0.00308269898058 -0.0040535314209 -0.010241178523 0.0973909121355 0.0275169955641 -0.0161670278669 -0.0249712535708
162 -0.00168298066236 0.00800397815909 0.0150016409707 0.0107558005498 -0.00653505610015 0.0240215542548 -0.0278365481107 -0.00243856950147 -0.00168298066236 0.00800397815909 0.0150016409707 0.0107558005498 -0.00653505610015 0.0240215542548 -0.0278365481107 -0.00243856950147
163 -0.0037959611299 0.0011318478879 0.0120466071465 0.0053572988249 -0.00432156018051 0.0139488637209 -0.0148024910422 -0.00123057986069 -0.0037959611299 0.0011318478879 0.0120466071465 0.0053572988249 -0.00432156018051 0.0139488637209 -0.0148024910422 -0.00123057986069
164 -0.00824595142842 0.00177969009738 0.0140261161498 0.00349533725108 -0.00353615693532 0.0109548969437 -0.01315935796 -0.00103105805688 -0.00824595142842 0.00177969009738 0.0140261161498 0.00349533725108 -0.00353615693532 0.0109548969437 -0.01315935796 -0.00103105805688
165 -0.00360979481797 0.00277200379335 0.00979591449301 0.00377281913631 -0.00242968408437 0.00847315909238 -0.0139404363207 -0.00118229551539 -0.00360979481797 0.00277200379335 0.00979591449301 0.00377281913631 -0.00242968408437 0.00847315909238 -0.0139404363207 -0.00118229551539
166 -0.000547280110746 0.011415430334 -0.00385851106328 0.00464708256496 -0.006456673536 0.0135640029356 -0.0227346401759 -0.00150501665604 -0.000547280110746 0.011415430334 -0.00385851106328 0.00464708256496 -0.006456673536 0.0135640029356 -0.0227346401759 -0.00150501665604
167 -0.00041481672818 0.000208026493837 0.00195381937921 0.000562742141328 -0.000809665590631 0.00207469532093 -0.00256166958612 -0.000156540123815 -0.00041481672818 0.000208026493837 0.00195381937921 0.000562742141328 -0.000809665590631 0.00207469532093 -0.00256166958612 -0.000156540123815
168 -0.0138420412582 0.0168426024291 0.0240759942479 0.0137123999985 -0.0136447925905 0.0353725051367 -0.0556758788757 -0.00451703553839 -0.0138420412582 0.0168426024291 0.0240759942479 0.0137123999985 -0.0136447925905 0.0353725051367 -0.0556758788757 -0.00451703553839
169 0.0104447413858 -0.00302368314356 0.00606245811586 -0.0133922346517 -0.00570750819607 0.0157234388799 -0.0252430196753 -0.00130917911346 0.0104447413858 -0.00302368314356 0.00606245811586 -0.0133922346517 -0.00570750819607 0.0157234388799 -0.0252430196753 -0.00130917911346
170 0.0151655278268 -0.0062253331848 0.00413049585722 -0.0103500237884 0.00176310847508 0.0124262205474 -0.0114932631654 -0.00260060022186 0.0151655278268 -0.0062253331848 0.00413049585722 -0.0103500237884 0.00176310847508 0.0124262205474 -0.0114932631654 -0.00260060022186
171 0.014203419501 -0.00729567630958 0.00385006090501 -0.0116160662204 0.00102211467111 0.0114296887772 -0.0100989658042 -0.00104242046609 0.014203419501 -0.00729567630958 0.00385006090501 -0.0116160662204 0.00102211467111 0.0114296887772 -0.0100989658042 -0.00104242046609
172 0.0106162562105 -0.00449910026733 0.00597673075617 -0.00771832973562 0.00137177189875 0.0138039962099 -0.0135505268062 -0.00176891592113 0.0106162562105 -0.00449910026733 0.00597673075617 -0.00771832973562 0.00137177189875 0.0138039962099 -0.0135505268062 -0.00176891592113
173 0.00719597792859 -0.000939678241971 0.00112768852748 0.000489265864309 0.00309852351935 0.00503811033863 -0.00345938343062 -0.000905025746945 0.00719597792859 -0.000939678241971 0.00112768852748 0.000489265864309 0.00309852351935 0.00503811033863 -0.00345938343062 -0.000905025746945
174 0.00541859579974 -0.000541693941808 0.00171758854413 -2.9026227215e-05 0.00256454201178 0.00431922928679 -0.00334730705943 -0.00083026076268 0.00541859579974 -0.000541693941808 0.00171758854413 -2.9026227215e-05 0.00256454201178 0.00431922928679 -0.00334730705943 -0.00083026076268
175 0.00875751665402 -0.00229913681266 0.00162731544259 -0.000592110383947 0.0294071506436 0.00998709742124 -0.00590929573514 -0.00642959944913 0.00875751665402 -0.00229913681266 0.00162731544259 -0.000592110383947 0.0294071506436 0.00998709742124 -0.00590929573514 -0.00642959944913
176 0.0031013336533 -0.000591013341127 0.000638900053538 -0.000791583744709 0.00879132493811 0.00337391485772 -0.00216745186038 -0.00323017297521 0.0031013336533 -0.000591013341127 0.000638900053538 -0.000791583744709 0.00879132493811 0.00337391485772 -0.00216745186038 -0.00323017297521
177 0.00729957328497 -0.00187395829706 0.00165676328079 -0.000201839227965 0.00478950229801 0.00555784067513 -0.00507061070702 -0.00111188625142 0.00729957328497 -0.00187395829706 0.00165676328079 -0.000201839227965 0.00478950229801 0.00555784067513 -0.00507061070702 -0.00111188625142
178 0.00958835128458 -0.00435537088729 0.00164101671276 -0.00232217305892 0.00781777844052 0.00603174284397 -0.00513772805028 -0.00406741976418 0.00958835128458 -0.00435537088729 0.00164101671276 -0.00232217305892 0.00781777844052 0.00603174284397 -0.00513772805028 -0.00406741976418
179 0.0110757695592 -0.00490362570267 0.0037870113672 -0.00850203338269 4.32581711094e-05 0.0106274881907 -0.0093939234378 -0.00130986463054 0.0110757695592 -0.00490362570267 0.0037870113672 -0.00850203338269 4.32581711094e-05 0.0106274881907 -0.0093939234378 -0.00130986463054
180 -0.00276661934423 0.00324043838077 -0.00115487478884 -0.00178830584509 0.0169888928817 0.000530095947342 0.00486840668739 -0.157490648563 -0.00276661934423 0.00324043838077 -0.00115487478884 -0.00178830584509 0.0169888928817 0.000530095947342 0.00486840668739 -0.157490648563
181 6.26768972318e-05 -0.020747945481 0.0143834934356 0.00936870929176 -0.00880432848671 0.0258852033264 -0.033048037729 -0.00366420049635 6.26768972318e-05 -0.020747945481 0.0143834934356 0.00936870929176 -0.00880432848671 0.0258852033264 -0.033048037729 -0.00366420049635
182 0.000579298084105 -0.000473165302093 0.000980691951314 0.0018284569281 -0.000813556421946 0.00197579715209 -0.00205006369351 -0.000138839438237 0.000579298084105 -0.000473165302093 0.000980691951314 0.0018284569281 -0.000813556421946 0.00197579715209 -0.00205006369351 -0.000138839438237
183 -0.000108904994848 -0.00027082589247 0.00327623536884 0.00313517781183 -0.000996733550363 0.00454563482888 -0.00462603596752 -0.000563374412704 -0.000108904994848 -0.00027082589247 0.00327623536884 0.00313517781183 -0.000996733550363 0.00454563482888 -0.00462603596752 -0.000563374412704
184 0.00889137454608 0.0130622978341 0.00239762903738 0.0235767279649 -0.00644642530101 0.0163102189475 -0.0180498791381 -0.00120721309117 0.00889137454608 0.0130622978341 0.00239762903738 0.0235767279649 -0.00644642530101 0.0163102189475 -0.0180498791381 -0.00120721309117
185 0.0153331464468 0.0130767469413 0.0113702380845 0.0250508527066 -0.0085356215249 0.0221532072931 -0.0263397613685 -0.00150495426724 0.0153331464468 0.0130767469413 0.0113702380845 0.0250508527066 -0.0085356215249 0.0221532072931 -0.0263397613685 -0.00150495426724
186 -0.00471140419712 -0.00187318657718 -0.00367239743909 -0.00334192095367 0.00647740901219 -0.0739739213702 -0.0754034826631 -0.00156803062694 -0.00471140419712 -0.00187318657718 -0.00367239743909 -0.00334192095367 0.00647740901219 -0.0739739213702 -0.0754034826631 -0.00156803062694
187 0.00652164084246 -0.00291870279145 -0.00131229036732 -0.0135385586104 -0.00565420557649 0.0161950746448 -0.0198850140803 -0.00217287123232 0.00652164084246 -0.00291870279145 -0.00131229036732 -0.0135385586104 -0.00565420557649 0.0161950746448 -0.0198850140803 -0.00217287123232
188 0.0019998769827 0.000572441219344 0.0019830861493 0.00386549318799 -0.00141685431672 0.00327528842316 -0.00365506690566 -0.000211698577169 0.0019998769827 0.000572441219344 0.0019830861493 0.00386549318799 -0.00141685431672 0.00327528842316 -0.00365506690566 -0.000211698577169
189 -0.00503539596017 -0.0462674791636 -0.0214656311802 0.0288672749542 -0.00172847674461 0.0099274154477 -0.00965955694548 -0.00755115240241 -0.00503539596017 -0.0462674791636 -0.0214656311802 0.0288672749542 -0.00172847674461 0.0099274154477 -0.00965955694548 -0.00755115240241
190 -0.022801294776 -0.156164749907 -0.0646029984002 0.0809350893087 -0.00991491516247 0.021333345317 -0.0190090336774 -0.00475608576487 -0.022801294776 -0.156164749907 -0.0646029984002 0.0809350893087 -0.00991491516247 0.021333345317 -0.0190090336774 -0.00475608576487
191 0.00567166545999 0.00285326799056 0.00595806589492 0.0082752741611 -0.002756946638 0.0070997706551 -0.00910836380223 -0.000508443001091 0.00567166545999 0.00285326799056 0.00595806589492 0.0082752741611 -0.002756946638 0.0070997706551 -0.00910836380223 -0.000508443001091
192 -7.15888614103e-05 0.000840134407103 0.00108023034292 0.000925000866798 -0.000476364994793 0.00135037730507 -0.00157511414887 -0.000102504333344 -7.15888614103e-05 0.000840134407103 0.00108023034292 0.000925000866798 -0.000476364994793 0.00135037730507 -0.00157511414887 -0.000102504333344
193 -0.000532598351606 0.00112303456853 0.00182706398794 0.00113482410462 -0.00061916867781 0.00206901404113 -0.00207855473888 -0.000229894057699 -0.000532598351606 0.00112303456853 0.00182706398794 0.00113482410462 -0.00061916867781 0.00206901404113 -0.00207855473888 -0.000229894057699
194 -0.00015051640261 0.000617401952662 0.00104798648591 0.00070664231015 -0.000407302567169 0.00128941964774 -0.00127064961187 -8.19628827305e-05 -0.00015051640261 0.000617401952662 0.00104798648591 0.00070664231015 -0.000407302567169 0.00128941964774 -0.00127064961187 -8.19628827305e-05
195 -0.000181660059794 0.0006465740586 0.00101944666179 0.000589716994836 -0.000393149194988 0.00133248496287 -0.00140586268224 -0.000184646134303 -0.000181660059794 0.0006465740586 0.00101944666179 0.000589716994836 -0.000393149194988 0.00133248496287 -0.00140586268224 -0.000184646134303
196 0.0112674666583 0.0042309103768 0.00204662701701 0.00160813257425 0.00288820085488 0.0201261056552 -0.0181581805808 -0.00949215038454 0.0112674666583 0.0042309103768 0.00204662701701 0.00160813257425 0.00288820085488 0.0201261056552 -0.0181581805808 -0.00949215038454
197 0.00140977095174 0.00187663489978 -0.000442103328663 0.00273859345581 0.000752858706102 0.00159676623589 -0.00100043935759 -0.00478742364791 0.00140977095174 0.00187663489978 -0.000442103328663 0.00273859345581 0.000752858706102 0.00159676623589 -0.00100043935759 -0.00478742364791
198 0.0031549447026 0.0018259631261 -0.000862337460335 0.00334783247342 0.000434504204966 0.00263388327892 -0.00164336369956 -0.0094759097681 0.0031549447026 0.0018259631261 -0.000862337460335 0.00334783247342 0.000434504204966 0.00263388327892 -0.00164336369956 -0.0094759097681
199 0.000388189898203 0.00061029623699 0.000174877510638 0.000795550276853 -9.98713994104e-05 0.000574246523069 -0.000443428988074 -0.000159099323854 0.000388189898203 0.00061029623699 0.000174877510638 0.000795550276853 -9.98713994104e-05 0.000574246523069 -0.000443428988074 -0.000159099323854
200 0.0012122473659 0.00159901765568 -0.000651097984606 0.00257619910359 -0.000111961591484 0.00110809396062 -0.000805838949328 -0.000588616862355 0.0012122473659 0.00159901765568 -0.000651097984606 0.00257619910359 -0.000111961591484 0.00110809396062 -0.000805838949328 -0.000588616862355
201 0.00191721949196 0.00152457460767 -0.000482625627866 0.00267081501768 0.000205533026554 0.00153109072403 -0.00192657268582 -0.000766534987175 0.00191721949196 0.00152457460767 -0.000482625627866 0.00267081501768 0.000205533026554 0.00153109072403 -0.00192657268582 -0.000766534987175
202 0.00490871559072 0.0056402593493 -0.00205565079543 0.0099883552788 -0.00148623192634 0.00622510008437 -0.00555690477209 -0.000729574727573 0.00490871559072 0.0056402593493 -0.00205565079543 0.0099883552788 -0.00148623192634 0.00622510008437 -0.00555690477209 -0.000729574727573
203 -0.00067932858887 -0.000212397998495 -0.000405369273582 -0.000292644540098 0.00067036221707 -0.00630167072331 -0.00532168306394 -7.62141806499e-05 -0.000679328588871 -0.000212397998495 -0.000405369273582 -0.000292644540098 0.00067036221707 -0.00630167072331 -0.00532168306394 -7.62141806499e-05
204 -0.000370970373226 5.19552857834e-05 0.000422050229326 0.000184983536523 -3.41288398402e-05 -0.000345248841134 -0.000919280575339 -3.1357250165e-05 -0.000370970373226 5.19552857834e-05 0.000422050229326 0.000184983536523 -3.41288398402e-05 -0.000345248841134 -0.000919280575339 -3.1357250165e-05
205 0.000103367736235 0.000232292257835 5.58122751255e-05 0.000329177749678 -3.42932319875e-05 -0.000195761995298 -0.000551943422194 -1.58813452623e-05 0.000103367736235 0.000232292257835 5.58122751255e-05 0.000329177749678 -3.42932319875e-05 -0.000195761995298 -0.000551943422194 -1.58813452623e-05
206 -0.00616360199976 -0.00206238265132 -0.00412710952331 -0.00272384719095 0.00679694859056 -0.066107002096 -0.0608993173283 -0.00113304432965 -0.00616360199976 -0.00206238265132 -0.00412710952331 -0.00272384719095 0.00679694859056 -0.066107002096 -0.0608993173283 -0.00113304432965
207 0.00102147232464 0.00157195437988 -0.000127381193954 0.00238474520825 -0.000386079325958 0.00130070788788 -0.00118382213193 -0.00046471290631 0.00102147232464 0.00157195437988 -0.000127381193954 0.00238474520825 -0.000386079325958 0.00130070788788 -0.00118382213193 -0.00046471290631
208 0.00637772132088 -0.0036635799073 0.0109883658728 0.000717902135394 -0.00722641553581 0.0237367978962 -0.0207060299467 -0.00120644175266 0.00637772132088 -0.0036635799073 0.0109883658728 0.000717902135394 -0.00722641553581 0.0237367978962 -0.0207060299467 -0.00120644175266
209 0.000908373493874 0.00133320595953 -7.50505540348e-05 0.00267396056864 -0.000932656637293 0.00241823911625 -0.00179576426795 -7.55821274643e-05 0.000908373493874 0.00133320595953 -7.50505540348e-05 0.00267396056864 -0.000932656637293 0.00241823911625 -0.00179576426795 -7.55821274643e-05
210 -0.0062629886234 -0.00121922061367 0.0252435564048 0.000940465312876 -0.00840656215379 0.0264119829902 -0.0276722037404 -0.00183694395564 -0.0062629886234 -0.00121922061367 0.0252435564048 0.000940465312876 -0.00840656215379 0.0264119829902 -0.0276722037404 -0.00183694395564
211 -0.000548604944838 -0.00301091987471 -0.00236154239933 0.00262373213641 -0.000128412298363 0.00135138663694 -0.00236494730766 -0.000191515302348 -0.000548604944838 -0.00301091987471 -0.00236154239933 0.00262373213641 -0.000128412298363 0.00135138663694 -0.00236494730766 -0.000191515302348
212 0.00658668654575 -0.000163801873623 0.0011327541465 -0.00799073808875 0.00226095714021 -0.0460671847971 -0.0634934818284 -0.0014941724249 0.00658668654575 -0.000163801873623 0.0011327541465 -0.00799073808875 0.00226095714021 -0.0460671847971 -0.0634934818284 -0.0014941724249
213 -0.000180072978111 0.00161747749168 -6.2136320205e-06 -0.00318405700496 0.0019031050111 -0.0319743081804 -0.0388912772327 -0.000808565731444 -0.000180072978111 0.00161747749168 -6.2136320205e-06 -0.00318405700496 0.0019031050111 -0.0319743081804 -0.0388912772327 -0.000808565731444
214 0.0140310052885 0.0183673273894 0.00813633405436 0.0267512295428 -0.00568856762175 0.00659260320692 -0.0392800190976 -0.00201356213008 0.0140310052885 0.0183673273894 0.00813633405436 0.0267512295428 -0.00568856762175 0.00659260320692 -0.0392800190976 -0.00201356213008
215 0.00165763276623 0.00107400668106 -4.82786311911e-05 0.000690968580635 0.00110649062852 -0.00385953068266 -0.0072634734468 -0.000300142688526 0.00165763276623 0.00107400668106 -4.82786311911e-05 0.000690968580635 0.00110649062852 -0.00385953068266 -0.0072634734468 -0.000300142688526
216 -0.00472164354459 0.00453389824411 -0.00827576750076 -0.00276266034459 0.00549553103195 -0.0849102897049 -0.0994315154012 -0.00220735998025 -0.00472164354459 0.00453389824411 -0.00827576750076 -0.00276266034459 0.00549553103195 -0.0849102897049 -0.0994315154012 -0.00220735998025
217 -0.0052891565708 -0.000241599242999 -0.00274609451637 -0.00405755061548 0.00705046965996 -0.0877391626991 -0.0940564497556 -0.00197478554905 -0.0052891565708 -0.000241599242999 -0.00274609451637 -0.00405755061548 0.00705046965996 -0.0877391626991 -0.0940564497556 -0.00197478554905
218 0.00491744698297 0.00884008080972 -0.00478340765045 0.00733773016698 0.000632807835506 -0.0226610578397 -0.0425553307487 -0.00123994708622 0.00491744698297 0.00884008080972 -0.00478340765045 0.00733773016698 0.000632807835506 -0.0226610578397 -0.0425553307487 -0.00123994708622
219 -0.00475177229541 -0.00153807242054 -0.00462752081092 -0.00411198540289 0.0080620128439 -0.0852736461956 -0.0821668191647 -0.00505979530413 -0.00475177229541 -0.00153807242054 -0.00462752081092 -0.00411198540289 0.0080620128439 -0.0852736461956 -0.0821668191647 -0.00505979530413
220 -0.00648646368463 -0.00169747439663 -0.00469163760254 -0.00428788453787 0.00851383246938 -0.0843101161893 -0.0789603564893 -0.00147033730114 -0.00648646368463 -0.00169747439663 -0.00469163760254 -0.00428788453787 0.00851383246938 -0.0843101161893 -0.0789603564893 -0.00147033730114
221 -0.00201938177419 0.00252343647264 -0.00518528719288 -0.00430650742978 0.00762649104585 -0.0865634900222 -0.0979488944582 -0.0021980749615 -0.00201938177419 0.00252343647264 -0.00518528719288 -0.00430650742978 0.00762649104585 -0.0865634900222 -0.0979488944582 -0.0021980749615
222 0.00831335317042 -0.00481934865927 0.00226245539788 -0.0184310185135 0.00458224664591 -0.0881049274042 -0.121776179438 -0.00304417341371 0.00831335317042 -0.00481934865927 0.00226245539788 -0.0184310185135 0.00458224664591 -0.0881049274042 -0.121776179438 -0.00304417341371
223 -0.00814128517394 -0.00472730945672 -0.00569640703149 0.000812015340181 0.00662652030137 -0.0785902237377 -0.0872352251439 -0.002238594177 -0.00814128517394 -0.00472730945672 -0.00569640703149 0.000812015340181 0.00662652030137 -0.0785902237377 -0.0872352251439 -0.002238594177
224 0.00900756948066 -0.00168722751025 0.00143912786808 -0.0107202428997 0.00233907312531 -0.029119713925 -0.0514393052265 -0.00253281317936 0.00900756948066 -0.00168722751025 0.00143912786808 -0.0107202428997 0.00233907312531 -0.029119713925 -0.0514393052265 -0.00253281317936
225 -0.000720893183148 0.000175416098045 7.85381133905e-05 0.000405159381025 0.000223848477785 -0.00262484979246 -0.00283227145757 -6.2627532259e-05 -0.000720893183148 0.000175416098045 7.85381133905e-05 0.000405159381025 0.000223848477785 -0.00262484979246 -0.00283227145757 -6.2627532259e-05
226 -0.000942289384123 0.000948998703639 0.00229210006819 0.00144484902589 -0.000791611488777 0.00170645189419 -0.00441689006891 -0.00024848082805 -0.000942289384123 0.000948998703639 0.00229210006819 0.00144484902589 -0.000791611488777 0.00170645189419 -0.00441689006891 -0.00024848082805
227 -0.000264110201934 2.54185049819e-05 1.84486238993e-05 0.000116734430901 8.39547179437e-05 -0.000955865275399 -0.000960988093187 -1.99456491235e-05 -0.000264110201934 2.54185049819e-05 1.84486238993e-05 0.000116734430901 8.39547179437e-05 -0.000955865275399 -0.000960988093187 -1.99456491235e-05
228 -0.0370314773462 0.0290505434662 -0.0648960100483 -0.0239173253915 -0.0186467318799 0.0299357486096 -0.0268772389517 -0.0011237308882 -0.0370314773462 0.0290505434662 -0.0648960100483 -0.0239173253915 -0.0186467318799 0.0299357486096 -0.0268772389517 -0.0011237308882
229 -0.0324735573389 0.01866122082 -0.0564972001058 -0.0376988238603 -0.0167733460895 0.0278769341344 -0.0209321113051 -0.000914263944973 -0.0324735573389 0.01866122082 -0.0564972001058 -0.0376988238603 -0.0167733460895 0.0278769341344 -0.0209321113051 -0.000914263944973
230 -0.01814349696 0.00889669558008 -0.0409424399969 -0.0380616262481 -0.0137981997749 0.0275490159992 -0.0215610770474 -0.00106178099722 -0.01814349696 0.00889669558008 -0.0409424399969 -0.0380616262481 -0.0137981997749 0.0275490159992 -0.0215610770474 -0.00106178099722
231 -0.00298008589885 0.00237755501173 -0.00468495592244 -0.00155739129483 -0.00123679453982 0.00138198740706 -0.00176621104914 -4.65373760302e-05 -0.00298008589885 0.00237755501173 -0.00468495592244 -0.00155739129483 -0.00123679453982 0.00138198740706 -0.00176621104914 -4.65373760302e-05
232 -0.0116777920893 0.0116911670361 -0.019476320484 -0.00554914748618 -0.00565800190307 0.000844059194628 -0.0187828363953 -0.000553169613432 -0.0116777920893 0.0116911670361 -0.019476320484 -0.00554914748618 -0.00565800190307 0.000844059194628 -0.0187828363953 -0.000553169613432
233 0.00543644966497 0.00807761529178 -0.016702023057 0.036272499058 -0.00664757247507 0.0152692876063 -0.0198316976815 -0.00148944598799 0.00543644966497 0.00807761529178 -0.016702023057 0.036272499058 -0.00664757247507 0.0152692876063 -0.0198316976815 -0.00148944598799
234 -0.0452382152487 0.028949911663 -0.0712559893984 -0.0393036431959 -0.0219491272483 0.0376137378955 -0.028531434871 -0.00150226661569 -0.0452382152487 0.028949911663 -0.0712559893984 -0.0393036431959 -0.0219491272483 0.0376137378955 -0.028531434871 -0.00150226661569
235 -0.0189244618606 0.0111403923543 -0.032742920805 -0.00415714859037 -0.00734717471694 0.0115577463787 -0.00969369214663 -0.000443164348434 -0.0189244618606 0.0111403923543 -0.032742920805 -0.00415714859037 -0.00734717471694 0.0115577463787 -0.00969369214663 -0.000443164348434
236 -0.00649685162007 0.00591353596349 -0.00926761142028 -0.00306618171016 -0.00275059122033 0.00532484002411 -0.00513861772108 -0.0004478966671 -0.00649685162007 0.00591353596349 -0.00926761142028 -0.00306618171016 -0.00275059122033 0.00532484002411 -0.00513861772108 -0.0004478966671
237 -0.0076522411485 0.0067038880191 -0.0121581133992 -0.00325553906968 -0.00354997165737 0.00494459338326 -0.00515449182108 -0.000180041034838 -0.0076522411485 0.0067038880191 -0.0121581133992 -0.00325553906968 -0.00354997165737 0.00494459338326 -0.00515449182108 -0.000180041034838
238 -0.0150886094337 0.0169958356748 -0.0326117748947 0.00672921862806 -0.00833355000008 0.0150441193537 -0.0142512091903 -0.000857156986064 -0.0150886094337 0.0169958356748 -0.0326117748947 0.00672921862806 -0.00833355000008 0.0150441193537 -0.0142512091903 -0.000857156986064
239 -0.013399188708 0.0239793428256 -0.0340569437398 0.0066372784024 -0.0115150560202 0.0224006617444 -0.0197286637004 -0.00106497632184 -0.013399188708 0.0239793428256 -0.0340569437398 0.0066372784024 -0.0115150560202 0.0224006617444 -0.0197286637004 -0.00106497632184
240 -0.0155048321813 0.0151215694706 -0.0281729407424 -0.00216587774165 -0.00730524982095 0.0113176780861 -0.00958328601507 -0.000375683273116 -0.0155048321813 0.0151215694706 -0.0281729407424 -0.00216587774165 -0.00730524982095 0.0113176780861 -0.00958328601507 -0.000375683273116
241 -0.0113799316454 0.0140785186213 -0.0246907390558 0.00917026110309 -0.00684282046124 0.0142541806213 -0.0134884629978 -0.000941845394324 -0.0113799316454 0.0140785186213 -0.0246907390558 0.00917026110309 -0.00684282046124 0.0142541806213 -0.0134884629978 -0.000941845394324
242 -0.0414048244346 0.0238966898165 -0.0833013763393 -0.0282063002412 -0.0217801849591 0.0382883606557 -0.0339364962587 -0.00178401876551 -0.0414048244346 0.0238966898165 -0.0833013763393 -0.0282063002412 -0.0217801849591 0.0382883606557 -0.0339364962587 -0.00178401876551
243 -0.0114091522399 0.00848411465952 -0.0174789027609 -0.00637769109968 -0.00480283025166 0.00666885653082 -0.00577624185275 -0.000196086954828 -0.0114091522399 0.00848411465952 -0.0174789027609 -0.00637769109968 -0.00480283025166 0.00666885653082 -0.00577624185275 -0.000196086954828
244 -0.00161141171086 0.00221072628525 0.0048941283712 0.00339421483517 -0.000140557173453 0.00513560632884 -0.00614384965038 -0.000724655384653 -0.00161141171086 0.00221072628525 0.0048941283712 0.00339421483517 -0.000140557173453 0.00513560632884 -0.00614384965038 -0.000724655384653
245 1.82451273299e-05 0.00055881438485 0.0010026118201 0.000722797207311 -0.000202860875848 0.000892301485565 -0.0010513657223 -9.14022047577e-05 1.82451273299e-05 0.00055881438485 0.0010026118201 0.000722797207311 -0.000202860875848 0.000892301485565 -0.0010513657223 -9.14022047577e-05
246 -5.96281189942e-05 0.000831433357359 0.00106802580011 0.000702466307827 -0.000220634498653 0.000653394396235 -0.00124256900878 -0.000131657496461 -5.96281189942e-05 0.000831433357359 0.00106802580011 0.000702466307827 -0.000220634498653 0.000653394396235 -0.00124256900878 -0.000131657496461
247 -0.000576839462706 0.000327924268688 0.00104496941639 0.000689740564151 -0.000102571226091 -5.30879357693e-05 -0.00170605203806 -7.86209438285e-05 -0.000576839462706 0.000327924268688 0.00104496941639 0.000689740564151 -0.000102571226091 -5.30879357693e-05 -0.00170605203806 -7.86209438285e-05
248 0.00302949143635 0.00287359336292 -0.00103053886859 0.00586039763735 0.00113695847972 0.00453659130698 -0.00310480969724 -0.00926069910312 0.00302949143635 0.00287359336292 -0.00103053886859 0.00586039763735 0.00113695847972 0.00453659130698 -0.00310480969724 -0.00926069910312
249 0.000825291021054 -0.000281729020176 0.000494780144212 0.000959156774208 -0.000686177611405 -0.00255084244185 -0.00462470892064 -0.00359037076437 0.000825291021054 -0.000281729020176 0.000494780144212 0.000959156774208 -0.000686177611405 -0.00255084244185 -0.00462470892064 -0.00359037076437
250 0.00835290022437 -0.00244127415165 -0.00136352722158 0.00857683495381 0.00545808180581 0.0104485212527 -0.00804837543242 -0.0019739905219 0.00835290022437 -0.00244127415165 -0.00136352722158 0.00857683495381 0.00545808180581 0.0104485212527 -0.00804837543242 -0.0019739905219
251 -0.00550623232566 -0.00423647557982 -0.00792077268127 0.00256288323901 0.00793787770535 -0.0718706922371 -0.077827003452 -0.0021507305949 -0.00550623232566 -0.00423647557982 -0.00792077268127 0.00256288323901 0.00793787770535 -0.0718706922371 -0.077827003452 -0.0021507305949
252 -0.00517236374703 -0.00456427773676 0.014266004441 -0.00455682639356 -0.00240240289991 0.00121026861209 -0.0286479832484 -0.00157849338548 -0.00517236374703 -0.00456427773676 0.014266004441 -0.00455682639356 -0.00240240289991 0.00121026861209 -0.0286479832484 -0.00157849338548
253 0.00786965072043 0.0026040640687 -0.00228721869622 0.00847087545595 0.00189097990052 0.00922709331152 -0.00708803680569 -0.00111561886484 0.00786965072043 0.0026040640687 -0.00228721869622 0.00847087545595 0.00189097990052 0.00922709331152 -0.00708803680569 -0.00111561886484
254 0.00890347788266 -0.00738160018388 0.0067075352153 -0.00278688726456 -0.000506134551017 0.0192455397645 -0.0204956923531 -0.00224130439878 0.00890347788266 -0.00738160018388 0.0067075352153 -0.00278688726456 -0.000506134551017 0.0192455397645 -0.0204956923531 -0.00224130439878
255 0.00598311194392 -0.00190893513831 0.0024484813814 0.0132466196735 0.00761843853902 0.0176705309609 -0.0161831252121 -0.00303993635233 0.00598311194392 -0.00190893513831 0.0024484813814 0.0132466196735 0.00761843853902 0.0176705309609 -0.0161831252121 -0.00303993635233
256 6.84885602898e-05 0.00234200049006 -0.00191773699946 0.00181703235673 0.00280328189663 0.00381387228572 -0.00261828551198 -0.00125091120304 6.84885602898e-05 0.00234200049006 -0.00191773699946 0.00181703235673 0.00280328189663 0.00381387228572 -0.00261828551198 -0.00125091120304
257 -0.0141356177522 0.0104134931177 -0.0176252422431 -0.0101616808409 -0.0079857653968 0.018149641263 -0.0144979951324 -0.00121844347235 -0.0141356177522 0.0104134931177 -0.0176252422431 -0.0101616808409 -0.0079857653968 0.018149641263 -0.0144979951324 -0.00121844347235
258 0.00318211342711 0.00857774889312 -0.00389969345614 0.013970006133 -0.000960027563176 0.00633982890341 -0.00600616287715 -0.00058278330667 0.00318211342711 0.00857774889312 -0.00389969345614 0.013970006133 -0.000960027563176 0.00633982890341 -0.00600616287715 -0.00058278330667
259 0.0123231433537 0.0253628712267 -0.0180053784086 0.0422987785791 -0.00927557609715 0.026369001427 -0.0218542207002 -0.002957236364 0.0123231433537 0.0253628712267 -0.0180053784086 0.0422987785791 -0.00927557609715 0.026369001427 -0.0218542207002 -0.002957236364
260 0.00217037511466 0.00180504604297 0.0014755901721 -0.00120569717841 -0.00187425066892 0.00228508031877 -0.00931053898328 -0.000390889193958 0.00217037511466 0.00180504604297 0.0014755901721 -0.00120569717841 -0.00187425066892 0.00228508031877 -0.00931053898328 -0.000390889193958
261 -0.0084050368512 -0.00436365110415 -0.00805736788179 1.69984680758e-05 0.0086482169582 -0.0810742706713 -0.0816024947707 -0.00190694027932 -0.0084050368512 -0.00436365110415 -0.00805736788179 1.69984680758e-05 0.0086482169582 -0.0810742706713 -0.0816024947707 -0.00190694027932
262 0.0183445026221 0.0188977556486 0.00859972391992 0.0276518495369 -0.00812055064243 0.0216308426731 -0.0259031331234 -0.00172356154639 0.0183445026221 0.0188977556486 0.00859972391992 0.0276518495369 -0.00812055064243 0.0216308426731 -0.0259031331234 -0.00172356154639
263 -0.00672473711695 0.0356225337941 -0.0416880823517 0.0270140104894 -0.0117427774536 0.022795201577 -0.0451857707828 -0.00270803627889 -0.00672473711695 0.0356225337941 -0.0416880823517 0.0270140104894 -0.0117427774536 0.022795201577 -0.0451857707828 -0.00270803627889
264 -0.00027760271493 0.000737749612391 -0.000442883708086 0.000704548615484 0.0001963549573 -0.00747449290864 -0.0113271668435 -0.000329401273189 -0.00027760271493 0.000737749612391 -0.000442883708086 0.000704548615484 0.0001963549573 -0.00747449290864 -0.0113271668435 -0.000329401273189
265 0.00209565046676 0.00326487788158 -0.00566965043909 0.0125243932824 -0.0017164259788 0.00166601783627 -0.0138418095167 -0.000705957194945 0.00209565046676 0.00326487788158 -0.00566965043909 0.0125243932824 -0.0017164259788 0.00166601783627 -0.0138418095167 -0.000705957194946
266 -0.0011142269445 -0.00261321493767 -0.00404126657422 0.00359375755218 0.000746216107591 -0.00975567875961 -0.0155637944042 -0.000598901987551 -0.0011142269445 -0.00261321493767 -0.00404126657422 0.00359375755218 0.000746216107591 -0.00975567875961 -0.0155637944042 -0.000598901987551
267 0.000140510352562 0.00118952155688 0.00117860006605 0.000410071485134 -4.14528066964e-05 -0.00436529594078 -0.0102328342922 -0.000427567942187 0.000140510352562 0.00118952155688 0.00117860006605 0.000410071485134 -4.14528066964e-05 -0.00436529594078 -0.0102328342922 -0.000427567942187
268 -0.00755451729396 -0.00517972741708 -0.00793161797452 0.00181567966405 0.0065221194947 -0.0702097580325 -0.0710619118648 -0.00284807711869 -0.00755451729396 -0.00517972741708 -0.00793161797452 0.00181567966405 0.0065221194947 -0.0702097580325 -0.0710619118648 -0.00284807711869
269 0.00878440332409 0.00465442243443 -0.000678604055457 0.00924559679954 0.00212837606028 0.00915941737699 -0.00792359800627 -0.00278775267683 0.00878440332409 0.00465442243443 -0.000678604055457 0.00924559679954 0.00212837606028 0.00915941737699 -0.00792359800627 -0.00278775267683
270 0.00130872290394 0.00189186635221 -0.000764380992171 0.00348927275645 -0.000288751312316 0.00250211275912 -0.00261873532248 -0.000512659500341 0.00130872290394 0.00189186635221 -0.000764380992171 0.00348927275645 -0.000288751312316 0.00250211275912 -0.00261873532248 -0.000512659500341
271 0.00228175823516 -0.000119152511523 0.000680552451821 -8.04349720804e-05 0.000282066924935 0.00171584114043 -0.00137012310058 -0.000417440760715 0.00228175823516 -0.000119152511523 0.000680552451821 -8.04349720804e-05 0.000282066924935 0.00171584114043 -0.00137012310058 -0.000417440760715
272 0.00333252281659 -3.41608052475e-05 0.00167839460162 0.00374991427732 0.00687144921437 0.0061737187395 -0.00550619124649 -0.00183623621681 0.00333252281659 -3.41608052475e-05 0.00167839460162 0.00374991427732 0.00687144921437 0.0061737187395 -0.00550619124649 -0.00183623621681
273 0.00990430559433 -0.00451395768123 0.00293524452902 -0.00764367339052 0.000420553622187 0.00938955258844 -0.00876580454637 -0.00612222374288 0.00990430559433 -0.00451395768123 0.00293524452902 -0.00764367339052 0.000420553622187 0.00938955258844 -0.00876580454637 -0.00612222374288
274 0.00327405660986 0.00142081966258 0.00618731958968 0.00177390390508 -0.00120332872269 0.00924130488041 -0.00977100434881 -0.00214224206172 0.00327405660986 0.00142081966258 0.00618731958968 0.00177390390508 -0.00120332872269 0.00924130488041 -0.00977100434881 -0.00214224206172
275 0.00883196059929 -0.0028605873058 0.00199585907203 -0.00390196312268 0.00364386196073 0.00614827287711 -0.00501754682371 -0.00221505986951 0.00883196059929 -0.0028605873058 0.00199585907203 -0.00390196312268 0.00364386196073 0.00614827287711 -0.00501754682371 -0.00221505986951
276 0.00434979194065 -0.000629888519844 0.00117153954665 -0.000919319100999 0.000285104361031 0.00263464760296 -0.002623290157 -0.00136836011923 0.00434979194065 -0.000629888519844 0.00117153954665 -0.000919319100999 0.000285104361031 0.00263464760296 -0.002623290157 -0.00136836011923
277 0.00228175823516 -0.000119152511523 0.000680552451821 -8.04349720804e-05 0.000282066924935 0.00171584114043 -0.00137012310058 -0.000417440760715 0.00228175823516 -0.000119152511523 0.000680552451821 -8.04349720804e-05 0.000282066924935 0.00171584114043 -0.00137012310058 -0.000417440760715
278 0.00633371139161 -0.00428442686733 0.00251117449583 -0.00791544198251 -0.00120415276169 0.00743752583575 -0.00709123275847 -0.000520177342215 0.00633371139161 -0.00428442686733 0.00251117449583 -0.00791544198251 -0.00120415276169 0.00743752583575 -0.00709123275847 -0.000520177342215
279 -0.00125439066811 0.00119658380361 0.00477896616574 0.00169120051493 -0.00108583623076 0.00537142559549 -0.00538769760063 -0.000597565798584 -0.00125439066811 0.00119658380361 0.00477896616574 0.00169120051493 -0.00108583623076 0.00537142559549 -0.00538769760063 -0.000597565798584
280 0.00575608530967 -0.00405242607703 0.00172733761236 -0.00743659456006 -0.00102305021585 0.00626508791637 -0.00611363902649 -0.000449874246382 0.00575608530967 -0.00405242607703 0.00172733761236 -0.00743659456006 -0.00102305021585 0.00626508791637 -0.00611363902649 -0.000449874246382
281 0.00190403950553 0.000384709708245 0.00188186888635 0.000322980499317 -0.000820621146161 0.00369110981659 -0.00304680440413 -0.000210785783729 0.00190403950553 0.000384709708245 0.00188186888635 0.000322980499317 -0.000820621146161 0.00369110981659 -0.00304680440413 -0.000210785783729
282 -0.0117764888317 0.00812672808641 -0.0204852231824 -0.0120316272065 -0.00738055601637 0.0134773772087 -0.0146770306084 -0.000780568130664 -0.0117764888317 0.00812672808641 -0.0204852231824 -0.0120316272065 -0.00738055601637 0.0134773772087 -0.0146770306084 -0.000780568130664
283 -0.000924398973842 0.0029159047529 0.00559611283449 0.00465036302944 -0.000299568998865 0.00775817178386 -0.00803852979136 -0.0010201130582 -0.000924398973842 0.0029159047529 0.00559611283449 0.00465036302944 -0.000299568998865 0.00775817178386 -0.00803852979136 -0.0010201130582
284 -6.25805008314e-06 -1.48879531165e-05 0.000171875603913 0.000156990623145 -4.8152073758e-05 0.000194965907044 -0.000172040781436 -1.52015215736e-05 -6.25805008314e-06 -1.48879531165e-05 0.000171875603913 0.000156990623145 -4.8152073758e-05 0.000194965907044 -0.000172040781436 -1.52015215736e-05
285 0.00171335247601 0.00295168182944 -0.00599847218757 0.0138147426179 -0.00130860874927 0.00496390466015 -0.00604901230188 -0.000518303514626 0.00171335247601 0.00295168182944 -0.00599847218757 0.0138147426179 -0.00130860874927 0.00496390466015 -0.00604901230188 -0.000518303514626
286 0.000798889497878 0.00530865144198 -0.00793879131053 0.00783433426692 0.00439370085281 0.00763844666369 -0.00657617946977 -0.00152392798181 0.000798889497878 0.00530865144198 -0.00793879131053 0.00783433426692 0.00439370085281 0.00763844666369 -0.00657617946977 -0.00152392798181
287 0.00282880338745 0.00127071627247 -0.00421799423799 0.00652382860841 0.000503462445844 0.00452161573204 -0.00327279453963 -0.00446008444166 0.00282880338745 0.00127071627247 -0.00421799423799 0.00652382860841 0.000503462445844 0.00452161573204 -0.00327279453963 -0.00446008444166
288 0.00493054317519 -0.00148581458141 -0.00118823055183 0.00297794346577 0.0035468195123 0.0048906548761 -0.00366859922061 -0.00087880782688 0.00493054317519 -0.00148581458141 -0.00118823055183 0.00297794346577 0.0035468195123 0.0048906548761 -0.00366859922061 -0.00087880782688
289 -0.00184793873814 0.00431498194482 -0.00511844983439 0.0025177325705 0.00800058292057 0.00428528164493 -0.00411650723141 -0.00197799668291 -0.00184793873814 0.00431498194482 -0.00511844983439 0.0025177325705 0.00800058292057 0.00428528164493 -0.00411650723141 -0.00197799668291
290 0.00181162566824 0.00133837534937 -0.00177101993073 0.00342967656172 0.000567891732312 0.00275628585156 -0.00219609427936 -0.000426359877386 0.00181162566824 0.00133837534937 -0.00177101993073 0.00342967656172 0.000567891732312 0.00275628585156 -0.00219609427936 -0.000426359877386
291 0.00792518922373 -0.0048183655065 -0.00355515294224 0.00674913113669 0.0202733745092 0.0110131230518 -0.00690926868919 -0.00614561346558 0.00792518922373 -0.0048183655065 -0.00355515294224 0.00674913113669 0.0202733745092 0.0110131230518 -0.00690926868919 -0.00614561346558
292 0.0023293746405 -0.000230432213765 0.00146283587118 0.00234020590236 0.00862635605787 0.00490172101028 -0.00605398736569 -0.00173699760237 0.0023293746405 -0.000230432213765 0.00146283587118 0.00234020590236 0.00862635605787 0.00490172101028 -0.00605398736569 -0.00173699760237
293 -0.00172372381001 0.00179470418693 0.00421908710549 0.00330717886906 -0.000866959629264 0.00495216211612 -0.00530029236752 -0.000601029002478 -0.00172372381001 0.00179470418693 0.00421908710549 0.00330717886906 -0.000866959629264 0.00495216211612 -0.00530029236752 -0.000601029002478
294 0.00778397949833 0.0214528696251 -0.00467844703693 0.040302788902 -0.00278266182447 0.0245910844917 -0.0214414355737 -0.00314423562754 0.00778397949833 0.0214528696251 -0.00467844703693 0.040302788902 -0.00278266182447 0.0245910844917 -0.0214414355737 -0.00314423562754
295 0.017428286359 0.0199705165422 0.00506890346747 0.0300953524053 -0.00675482371644 0.0185661918398 -0.0195100647854 -0.00123316740186 0.017428286359 0.0199705165422 0.00506890346747 0.0300953524053 -0.00675482371644 0.0185661918398 -0.0195100647854 -0.00123316740186
296 0.0121818538347 0.020569794365 -0.0115881416394 0.039892715129 -0.00606899122209 0.018887577879 -0.0186498136665 -0.00171216291481 0.0121818538347 0.020569794365 -0.0115881416394 0.039892715129 -0.00606899122209 0.018887577879 -0.0186498136665 -0.00171216291481
297 -0.00783218880037 0.0046468633362 0.0138629072145 0.00737817331552 -0.00442998464374 0.0139396222091 -0.014637923547 -0.00114634908653 -0.00783218880037 0.0046468633362 0.0138629072145 0.00737817331552 -0.00442998464374 0.0139396222091 -0.014637923547 -0.00114634908653
298 0.00520914558324 0.00679107038105 -0.0234573706337 0.0383244805318 -0.00381079126743 0.0215062244324 -0.0199028367711 -0.0058330980167 0.00520914558324 0.00679107038105 -0.0234573706337 0.0383244805318 -0.00381079126743 0.0215062244324 -0.0199028367711 -0.0058330980167
299 0.00178338446922 0.00160056209232 0.000180866778458 0.00382701809807 0.00259543110449 0.00328314145241 -0.00261777425891 -0.000640995999666 0.00178338446922 0.00160056209232 0.000180866778458 0.00382701809807 0.00259543110449 0.00328314145241 -0.00261777425891 -0.000640995999666
300 -0.00310280348095 -0.000776001045302 0.0042813215282 -0.000223280115314 0.00290614717699 0.00286448748285 -0.00272777124763 -0.000572713118884 -0.00310280348095 -0.000776001045302 0.0042813215282 -0.000223280115314 0.00290614717699 0.00286448748285 -0.00272777124763 -0.000572713118884
301 -0.000726420205098 0.000490574100598 -0.011388765711 0.0134199979128 -0.00168183750191 0.00905055015046 -0.0124094143753 -0.00109974260002 -0.000726420205098 0.000490574100598 -0.011388765711 0.0134199979128 -0.00168183750191 0.00905055015046 -0.0124094143753 -0.00109974260002
302 0.000535087051595 0.00176109235558 -0.00403522228155 0.00574736667535 -0.000554282889273 0.00252007333602 -0.00251531808912 -0.000266540716053 0.000535087051595 0.00176109235558 -0.00403522228155 0.00574736667535 -0.000554282889273 0.00252007333602 -0.00251531808912 -0.000266540716053
303 0.00175920068867 0.00857524314962 -0.007459468615 0.0123491138022 -0.00136599735119 0.00692648065213 -0.00819700760289 -0.000717192098228 0.00175920068867 0.00857524314962 -0.007459468615 0.0123491138022 -0.00136599735119 0.00692648065213 -0.00819700760289 -0.000717192098228
304 0.00233107222296 0.0110431906417 -0.010062991784 0.0178267653712 -0.00300415341787 0.00772567934806 -0.0100308073763 -0.000529550558291 0.00233107222296 0.0110431906417 -0.010062991784 0.0178267653712 -0.00300415341787 0.00772567934806 -0.0100308073763 -0.000529550558291
305 -0.00654413736824 0.0256252348923 -0.0249083300674 0.0206262659766 -0.0101847367051 0.0226856430767 -0.0290489205425 -0.00209433068937 -0.00654413736824 0.0256252348923 -0.0249083300674 0.0206262659766 -0.0101847367051 0.0226856430767 -0.0290489205425 -0.00209433068937
306 -0.00569932247252 -0.0789543982361 -0.0237993627391 0.0376243753727 -0.0049702036123 0.0277035974916 -0.0249868226648 -0.00318655646655 -0.00569932247252 -0.0789543982361 -0.0237993627391 0.0376243753727 -0.0049702036123 0.0277035974916 -0.0249868226648 -0.00318655646655
307 0.00138351360697 0.00241676080749 -0.00117390625546 0.00361793640584 -0.000990941912049 0.00162319941309 -0.00547929256246 -0.000289242889976 0.00138351360697 0.00241676080749 -0.00117390625546 0.00361793640584 -0.000990941912049 0.00162319941309 -0.00547929256246 -0.000289242889976
308 -0.000452529544172 0.0073796787933 -0.00740081185875 0.00845095512075 -0.00114082397083 0.00160635112733 -0.0111146757456 -0.00050953917722 -0.000452529544172 0.0073796787933 -0.00740081185875 0.00845095512075 -0.00114082397083 0.00160635112733 -0.0111146757456 -0.00050953917722
309 -0.0159247556043 -0.051107889068 -0.0560032985193 0.0516792832089 0.00456831929885 0.00777081416424 -0.0428854697851 -0.00589119123505 -0.0159247556043 -0.051107889068 -0.0560032985193 0.0516792832089 0.00456831929885 0.00777081416424 -0.0428854697851 -0.00589119123505
310 -0.000325206587879 0.00354434174523 -0.0112789577762 0.0122871069444 -0.000128125178555 0.00552442797879 -0.00843866742433 -0.000866213508317 -0.000325206587879 0.00354434174523 -0.0112789577762 0.0122871069444 -0.000128125178555 0.00552442797879 -0.00843866742433 -0.000866213508317
311 0.00422958041559 -0.000820005083092 0.00023126814244 -9.31115903493e-05 0.0327003599511 0.00821845013157 -0.00359183607546 -0.0181366517277 0.00422958041559 -0.000820005083092 0.00023126814244 -9.31115903493e-05 0.0327003599511 0.00821845013157 -0.00359183607546 -0.0181366517277
312 0.00896554496967 -0.000478317385431 0.00245555521854 0.0030678136971 0.0195022012957 0.0103146767732 -0.00836914316145 -0.00352519158345 0.00896554496967 -0.000478317385431 0.00245555521854 0.0030678136971 0.0195022012957 0.0103146767732 -0.00836914316145 -0.00352519158345
313 0.00253414065 9.42485517542e-05 0.000500253019863 0.0011265848958 0.00877152149745 -0.00074187889334 -0.00622815361433 -0.00123482936795 0.00253414065 9.42485517542e-05 0.000500253019863 0.0011265848958 0.00877152149745 -0.00074187889334 -0.00622815361433 -0.00123482936795
314 -0.00362129852763 -0.00021218617429 0.00495158003306 0.0016373194789 -0.00157360861317 0.00385133704362 -0.00345053526129 -0.000139188897452 -0.00362129852763 -0.00021218617429 0.00495158003306 0.0016373194789 -0.00157360861317 0.00385133704362 -0.00345053526129 -0.000139188897452
315 0.00225217237518 0.00023851469109 0.000599310155879 0.000656518516461 0.00235275769851 0.00225181814696 -0.00148198481715 -0.00064293531234 0.00225217237518 0.00023851469109 0.000599310155879 0.000656518516461 0.00235275769851 0.00225181814696 -0.00148198481715 -0.00064293531234
316 0.000504389165386 0.000292748892497 0.000390371435072 0.000388237645698 -5.86393680052e-06 0.000616482819313 -0.000439704596271 -8.75544360035e-05 0.000504389165386 0.000292748892497 0.000390371435072 0.000388237645698 -5.86393680052e-06 0.000616482819313 -0.000439704596271 -8.75544360035e-05
317 0.00452321185025 0.00112461401339 0.0015894987948 0.00250913415227 0.000145877177937 0.0045496362773 -0.00314402275291 -0.00608386456829 0.00452321185025 0.00112461401339 0.0015894987948 0.00250913415227 0.000145877177937 0.0045496362773 -0.00314402275291 -0.00608386456829
318 0.00433085383476 0.00660190819881 -0.00163965532661 0.0114455857709 -0.00153349200129 0.00564933556936 -0.00484410958223 -0.000722577007143 0.00433085383476 0.00660190819881 -0.00163965532661 0.0114455857709 -0.00153349200129 0.00564933556936 -0.00484410958223 -0.000722577007143
319 0.00835688845315 -0.00355612246255 0.00284719352088 -0.00705320351925 -0.0012657403923 0.00830717766095 -0.00754302768692 -0.00126912278067 0.00835688845315 -0.00355612246255 0.00284719352088 -0.00705320351925 -0.0012657403923 0.00830717766095 -0.00754302768692 -0.00126912278067
320 0.00139946278306 0.00228025191468 0.00484406496445 0.00340577489535 -0.00164547805085 0.00721638376431 -0.00669674166958 -0.00153732883724 0.00139946278306 0.00228025191468 0.00484406496445 0.00340577489535 -0.00164547805085 0.00721638376431 -0.00669674166958 -0.00153732883724
321 0.000899829930129 0.000820490613888 0.000453401183081 0.00118513575598 -0.000102500180417 0.0010830119268 -0.000785586300878 -0.000256573037785 0.000899829930129 0.000820490613888 0.000453401183081 0.00118513575598 -0.000102500180417 0.0010830119268 -0.000785586300878 -0.000256573037785
322 0.000700010605662 0.00113077125429 -0.00060792910712 0.00199758437414 -0.000293192210552 0.000810103295064 -0.000693580538359 -4.61992609178e-05 0.000700010605662 0.00113077125429 -0.00060792910712 0.00199758437414 -0.000293192210552 0.000810103295064 -0.000693580538359 -4.61992609178e-05
323 0.0039334196142 -0.00110794517197 0.00100929315344 -0.00177894925569 0.000366021250749 0.00299129318797 -0.00229453404285 -0.000468150969321 0.0039334196142 -0.00110794517197 0.00100929315344 -0.00177894925569 0.000366021250749 0.00299129318797 -0.00229453404285 -0.000468150969321
324 -0.000453286372332 -0.000156222281148 0.000419118394033 -6.40247295019e-05 3.95799947084e-05 -0.000669359569124 -0.000729339018785 -1.91610386298e-05 -0.000453286372332 -0.000156222281148 0.000419118394033 -6.40247295019e-05 3.95799947084e-05 -0.000669359569124 -0.000729339018785 -1.91610386298e-05
325 -0.000501410461926 -0.000168567771154 0.000414924683837 -5.41809219221e-05 6.27974671279e-05 -0.000859451022146 -0.000895694821178 -2.17017182834e-05 -0.000501410461926 -0.000168567771154 0.000414924683837 -5.41809219221e-05 6.27974671279e-05 -0.000859451022146 -0.000895694821178 -2.17017182834e-05
326 -0.000522004710721 -0.00013785034951 0.000615647442669 3.45375303255e-05 -3.51251538508e-05 -0.000585190699296 -0.000868295548314 -0.000123779641408 -0.000522004710721 -0.00013785034951 0.000615647442669 3.45375303255e-05 -3.51251538508e-05 -0.000585190699296 -0.000868295548314 -0.000123779641408
327 -0.00066510231226 -0.000472574591187 0.000776673445959 -0.00052033168211 0.00025296519416 -0.0034064695847 -0.00399223050219 -8.53665230764e-05 -0.00066510231226 -0.000472574591187 0.000776673445959 -0.00052033168211 0.00025296519416 -0.0034064695847 -0.00399223050219 -8.53665230764e-05
328 -0.000374820683744 -0.000124882994705 0.000339473758403 -4.89891220608e-05 3.39046931741e-05 -0.000560051051207 -0.000594272249551 -1.6386945732e-05 -0.000374820683744 -0.000124882994705 0.000339473758403 -4.89891220608e-05 3.39046931741e-05 -0.000560051051207 -0.000594272249551 -1.6386945732e-05
329 -0.000539813516757 -0.000169339979531 0.000559252275898 -5.11244673619e-05 1.69239914651e-05 -0.000568153152739 -0.000749788092611 -1.91762585892e-05 -0.000539813516757 -0.000169339979531 0.000559252275898 -5.11244673619e-05 1.69239914651e-05 -0.000568153152739 -0.000749788092611 -1.91762585892e-05
330 -0.000198745229872 0.00126883018972 5.21007073918e-05 -0.00149334504199 -0.00384381599011 -0.00378121242318 0.00492043223994 -0.0617376766684 -0.000198745229872 0.00126883018972 5.21007073918e-05 -0.00149334504199 -0.00384381599011 -0.00378121242318 0.00492043223994 -0.0617376766684
331 -0.00239397699758 0.000470994811782 -0.00163119054878 -0.00231623043926 0.00965435404947 -0.00161559382564 0.00433901472043 -0.0698538817778 -0.00239397699758 0.000470994811782 -0.00163119054878 -0.00231623043926 0.00965435404947 -0.00161559382564 0.00433901472043 -0.0698538817778
332 0.00468786112938 -0.00042629354483 0.00318118259874 -0.000563066815536 -0.0379196587632 -0.0101703707169 0.00906544882879 -0.113505758905 0.00468786112938 -0.00042629354483 0.00318118259874 -0.000563066815536 -0.0379196587632 -0.0101703707169 0.00906544882879 -0.113505758905
333 0.00128293245737 -1.89335210312e-05 0.000696013296753 -0.000370897325535 0.00163095185575 0.00125962285492 -0.000592004403503 -0.00634100002339 0.00128293245737 -1.89335210312e-05 0.000696013296753 -0.000370897325535 0.00163095185575 0.00125962285492 -0.000592004403503 -0.00634100002339
334 -0.002763720853 0.00181025318487 -0.00126186366623 -0.000619654117945 0.014050221572 0.000831339566432 0.00165018508832 -0.039257319137 -0.002763720853 0.00181025318487 -0.00126186366623 -0.000619654117945 0.014050221572 0.000831339566432 0.00165018508832 -0.039257319137
335 0.0059549132795 2.42079173859e-05 0.00331896778487 -0.00228277536097 -0.0363107270444 -0.0101266223149 0.00919833735721 -0.123677321043 0.0059549132795 2.42079173858e-05 0.00331896778487 -0.00228277536097 -0.0363107270444 -0.0101266223149 0.00919833735721 -0.123677321043
336 0.00358025688789 0.000376527892837 0.00331754722747 -0.0013002538553 -0.0336529472055 -0.00870440151954 0.00794172723144 -0.121385575423 0.00358025688789 0.000376527892837 0.00331754722747 -0.0013002538553 -0.0336529472055 -0.00870440151954 0.00794172723144 -0.121385575423
337 -0.00436869275719 0.00303686736062 -0.00191568733742 -0.00197529812261 0.000207258505113 -0.00582810098613 0.00805427654805 -0.106323725484 -0.00436869275719 0.00303686736062 -0.00191568733742 -0.00197529812261 0.000207258505113 -0.00582810098613 0.00805427654805 -0.106323725484
338 0.00552423206864 -0.000417920951393 0.00401555374318 -0.000714435584069 -0.0510816067395 -0.0129539894991 0.0105193302126 -0.117123105152 0.00552423206864 -0.000417920951393 0.00401555374318 -0.000714435584069 -0.0510816067395 -0.0129539894991 0.0105193302126 -0.117123105152
339 0.00312097187604 -0.000267840590509 0.00167389762848 -0.00176743752204 -0.0239009376118 -0.00855354446623 0.00918558351642 -0.141428984851 0.00312097187604 -0.000267840590509 0.00167389762848 -0.00176743752204 -0.0239009376118 -0.00855354446623 0.00918558351642 -0.141428984851
340 0.000294776712319 0.000545128230901 0.000209462991531 -0.00105901719409 -0.0139117871799 -0.00608885997243 0.00608473279147 -0.0710532734523 0.000294776712319 0.0005451282309 0.000209462991531 -0.00105901719409 -0.0139117871799 -0.00608885997243 0.00608473279147 -0.0710532734523
341 0.00054765124866 -0.00190680055841 -0.00032834658099 -0.000322641856234 -0.00729742219335 -0.00356370274389 0.00396935285169 -0.0530124052165 0.00054765124866 -0.00190680055841 -0.00032834658099 -0.000322641856234 -0.00729742219335 -0.00356370274389 0.00396935285169 -0.0530124052165
342 0.000904818669882 -0.000592196524985 0.000896068136817 -0.00155837657206 -0.0273866381534 -0.0103578722406 0.0102029461861 -0.129438383476 0.000904818669882 -0.000592196524985 0.000896068136817 -0.00155837657206 -0.0273866381534 -0.0103578722406 0.0102029461861 -0.129438383476
343 0.00477612257988 -0.00197963303954 0.00250521821748 -0.000292279614846 -0.0448269423869 -0.0120282676811 0.00946162015552 -0.0979366302382 0.00477612257988 -0.00197963303954 0.00250521821748 -0.000292279614846 -0.0448269423869 -0.0120282676811 0.00946162015552 -0.0979366302382
344 0.00250516179835 -0.000495372087769 0.00153665210952 -0.000419669070754 -0.0200033966619 -0.0052104858416 0.00445169088913 -0.0480921762059 0.00250516179835 -0.000495372087769 0.00153665210952 -0.000419669070754 -0.0200033966619 -0.0052104858416 0.00445169088913 -0.0480921762059
345 -0.00151849434271 0.00211895659845 0.00409815740885 0.00287034381312 0.00873341858594 0.00748044005441 -0.00628821803417 -0.002316629512 -0.00151849434271 0.00211895659845 0.00409815740885 0.00287034381312 0.00873341858594 0.00748044005441 -0.00628821803417 -0.002316629512
346 0.00444262038355 -0.00335532558743 0.000902621426335 -0.00753728203698 0.0187021965248 0.0104148411881 -0.00829743026875 -0.00694820098996 0.00444262038355 -0.00335532558743 0.000902621426335 -0.00753728203698 0.0187021965248 0.0104148411881 -0.00829743026875 -0.00694820098996
347 0.00037082430375 0.000284135002164 0.000367164316163 0.000482717953708 0.00122601251059 0.000677610204211 -0.000652809226043 -0.000165473781843 0.00037082430375 0.000284135002164 0.000367164316163 0.000482717953708 0.00122601251059 0.000677610204211 -0.000652809226043 -0.000165473781843
348 0.00150369299598 0.000393987214169 6.59964426878e-05 0.00143836460935 0.000936224240311 0.0016155138196 -0.00187157864573 -0.000270551338607 0.00150369299598 0.000393987214169 6.59964426878e-05 0.00143836460935 0.000936224240311 0.0016155138196 -0.00187157864573 -0.000270551338607
349 0.00973426861818 -0.000623668545155 0.000859217925875 -0.00227144079382 -0.00210628728286 0.0100832043538 -0.00922196929073 -0.00088713624304 0.00973426861818 -0.000623668545155 0.000859217925875 -0.00227144079382 -0.00210628728286 0.0100832043538 -0.00922196929073 -0.00088713624304
350 0.00339379658841 3.90829323629e-06 0.00595352745399 -0.00365604448424 -0.00284509432613 0.011495767946 -0.0155583662277 -0.00124269631309 0.00339379658841 3.9082932363e-06 0.00595352745399 -0.00365604448424 -0.00284509432613 0.011495767946 -0.0155583662277 -0.00124269631309
351 -0.000678717711971 0.000650990801901 0.000231261288966 0.000723559862933 0.000210013099351 -0.00207916123309 -0.00321751231746 -0.000107764779071 -0.000678717711971 0.000650990801901 0.000231261288966 0.000723559862933 0.000210013099351 -0.00207916123309 -0.00321751231746 -0.000107764779071
352 0.00208532544886 0.00658085003166 -0.00158639903051 0.0114369696856 -0.00161195629992 0.00529918244569 -0.00536848068053 -0.000411392565015 0.00208532544886 0.00658085003166 -0.00158639903051 0.0114369696856 -0.00161195629992 0.00529918244569 -0.00536848068053 -0.000411392565015
